tree
version=v4
num_class=1
num_tree_per_iteration=1
label_index=0
max_feature_idx=58
objective=binary sigmoid:1
feature_names=neck trunk shoulder elbow wrist hip knee r_shoulder l_shoulder r_elbow l_elbow r_wrist l_wrist r_hip l_hip r_knee l_knee neck_vel trunk_vel shoulder_vel elbow_vel wrist_vel hip_vel knee_vel neck_duration trunk_duration shoulder_duration elbow_duration wrist_duration hip_duration knee_duration neck_freq trunk_freq shoulder_freq elbow_freq wrist_freq hip_freq knee_freq asym_shoulder asym_elbow asym_wrist asym_hip asym_knee upper_load lower_load neck_hflex trunk_hflex shoulder_hext raw_neck raw_trunk raw_r_shoulder raw_l_shoulder neck_energy trunk_energy shoulder_energy elbow_energy wrist_energy hip_energy knee_energy
feature_infos=[0:70.048110961914062] [0:90] [4.1582093238830566:147.6243896484375] [32.271343231201172:141.51274108886719] [0:45] [0:104.52449798583984] [0:82.960548400878906] [0:147.6243896484375] [0:133.74772644042969] [14.422749519348145:141.51274108886719] [8.2607669830322266:128.0303955078125] [0:45] [0:45] [0:104.52449798583984] [0:86.058784484863281] [0:82.960548400878906] [0:79.760337829589844] [0:64.187049865722656] [0:88.710350036621094] [0:117.99112701416016] [0:82.550254821777344] [0:44.265827178955078] [0:77.063079833984375] [0:81.633125305175781] [0:23] [1:30] [1:28] [1:22] [1:19] [1:25] [0:6] [0:18] [0:19] [0:17] [0:18] [0:18] [0:17] [0:17] [0.00047472136793658137:98.573936462402344] [0.00028762995498254895:93.674720764160156] [0:33.066371917724609] [0:74.931907653808594] [0:63.807991027832031] [15.50093936920166:77.740432739257812] [4.6943159103393555:77.101593017578125] [0:1] [0:1] [0:1] [0:70.048110961914062] [0:90] [0:147.6243896484375] [0:133.74772644042969] [0:1091.1798095703125] [0:1941.8323974609375] [0:2518.112060546875] [0:1326.090576171875] [0:653.936279296875] [0:1282.7144775390625] [0:244.747314453125]
tree_sizes=669 1095 1207 1206 1405 1312 1841 1849 1519 1405 1522 1517 1739 1398 1407 1305 1312 1318 1653 1316 3307 2854 3294 3266 2851 3396 2729 2736 3146 2733 3168 3171 3274 3267 3388 2838 2840 3397 2857 2740 2746 2856 2865 2855 3056 3421 3173 3181 3275 3172 2754 2754 2868 2754 2748 3395 3388 3395 3398 3173 2753 2850 3284 3429 3179 2762 2752 2857 2755 2762 2872 2975 3400 3176 2973 2747 2762 2759 2866 3190 3295 3284 3088 3296 3452 2768 2751 2773 2766 3190 3068 3188 3294 2881 2765 2775 2776 2765 2782 3199 3462 3086 2774 2778 2768 3090 2889 3091 3492 2774 2785 3096 2778 3305 2792 3098 2788 2787 2785 2787 2895 3204 2894 3215 2784 2784 2792 3220 2793 3220 2794 2916 2794 2802 2798 3230 3108 3131 2808 2804 3234 2812 2908 2798 2813 2450 2565 2341 2443 2990 2784 2560 2334 2451 2349 3036 3253 3025 3363 3028 2826 2826 2811 2820 2819 3039 2937 2937 2931 3163 2941 2938 2938 3058 2943 3049 3063 3506 3142 3055 3059 3281 2950 3063 2944 3605 2952 3171 3077 3074 2960 2952 3071 2963 3071 2962 2964 2847 3077 3081 2967 3185 3070 3294 2979 3634 2869 2974 2755 3098 2761 3199 2975 2985 3311 2979 2870 2873 2874 3209 2863 2969 3557 2876 2753 2872 3098 2873 2869 2760 2290 2294 2296 2294 2628 2308 2427 2320 2652 2540 2184 2407 2181 2189 2188 2201 2211 2090 1867 1978 1735 1623 1619 1622 1621 1732 1611 1626 1980 1991 1739 1732 1615 1849 1860 1627 1506 1509 1510 1393 1385 1508 1277 1516 1283 1184 1374 1282 1278 1059 1050 1049 1051 941 1050 1045 945 934 935 833 938 829 824 826 826 725 724 723 716 713 713 604 494 493 600 601 611 604 491 489 488 490 493 490 491 492 380 380 380 381 380 380 381 382 382 380 381 381 381 381 381 378 380 381 381 381 377 382 381 380 380 381 380 380 382 380 382 380 382 382 380 378 380 381 381 381 377 381 382 378 380 379 382 381 382 382 381 381 382 380 381 380 381 381 382 381 381 382 382 380 382 380 381 381 382 381 383 382 380 383 379 381 382 379 382 382 379 381 380 380 379 379 380 380 383 383 383 383 380 384 381 380 381 381 382 379 382 382 382 382 383

Tree=0
num_leaves=5
num_cat=0
split_feature=49 49 20 0
split_gain=12533.9 0.00229389 0.0250174 9.09495e-13
threshold=63.990901947021491 64.997192382812514 2.596881747245789 48.290788650512702
decision_type=2 2 2 2
left_child=3 2 -2 -1
right_child=1 -3 -4 -5
leaf_value=-0.10000000268220913 0.097389099083952005 0.099999997317790884 0.099999997317790884 -0.10000000268220913
leaf_weight=1546.3279792964458 10.081862300634382 1435.3233776092529 101.99004936218262 40.800210535526276
leaf_count=11749 5 577 41 310
internal_value=-0.00127599 0.099983 0.0997651 -0.1
internal_weight=3134.52 1547.4 112.072 1587.13
internal_count=12682 623 46 12059
is_linear=0
shrinkage=1


Tree=1
num_leaves=9
num_cat=0
split_feature=1 37 1 20 0 0 0 1
split_gain=11341.2 0.0219156 4.68978e-06 3.93852e-05 9.09495e-13 9.09495e-13 5.68434e-14 1.42109e-14
threshold=63.990901947021491 1.5000000000000002 64.997192382812514 3.4269064664840703 50.702356338500984 14.285843372344972 44.595893859863288 22.971089363098148
decision_type=2 2 2 2 2 2 2 2
left_child=4 -2 3 -3 -1 -4 -5 -6
right_child=1 2 5 6 7 -7 -8 -9
leaf_value=-0.095241870000365492 0.093143692908534692 0.095336497440631676 0.095241877748184947 0.095241877748184947 -0.095241870000365367 0.095241877748184947 0.095241877748184947 -0.095241870000365492
leaf_weight=1560.192142367363 12.53806960582733 12.408045530319212 233.24723100662231 81.884666204452515 2.8882722258567837 1188.568336725235 14.888121128082274 20.086620479822159
leaf_count=11884 6 5 94 33 22 479 6 153
internal_value=-0.00121527 0.0952256 0.0952426 0.0952526 -0.0952419 0.0952419 0.0952419 -0.0952419
internal_weight=3126.7 1543.53 1531 109.181 1583.17 1421.82 96.7728 22.9749
internal_count=12682 623 617 44 12059 573 39 175
is_linear=0
shrinkage=0.05


Tree=2
num_leaves=10
num_cat=0
split_feature=1 37 1 55 0 0 0 0 1
split_gain=10310.9 0.0202984 3.50952e-06 1.70035e-05 9.09495e-13 9.09495e-13 1.13687e-13 2.84217e-14 1.42109e-14
threshold=63.990901947021491 1.5000000000000002 64.997192382812514 43.325082778930671 35.093160629272468 49.741922378540046 53.575941085815437 55.935621261596687 55.906202316284187
decision_type=2 2 2 2 2 2 2 2 2
left_child=4 -2 3 -3 -1 -4 -6 -7 -8
right_child=1 2 5 -5 6 7 8 -9 -10
leaf_value=-0.091131781760191516 0.089105526708814609 0.091183115779127161 0.091131779165324112 0.091131779165324112 -0.091131781760191516 0.091131779165324112 -0.091131781760191544 0.091131779165324112 -0.091131781760191322
leaf_weight=1339.5234860479832 12.452958226203917 19.714422464370728 1355.2032709121704 88.704214096069336 221.23322197794914 39.424095153808594 10.559747189283367 17.24804162979126 0.7822034955024727
leaf_count=10275 6 8 550 36 1697 16 81 7 6
internal_value=-0.00116283 0.091116 0.0911324 0.0911411 -0.0911318 0.0911318 -0.0911318 0.0911318 -0.0911318
internal_weight=3104.85 1532.75 1520.29 108.419 1572.1 1411.88 232.575 56.6721 11.342
internal_count=12682 623 617 44 12059 573 1784 23 87
is_linear=0
shrinkage=0.05


Tree=3
num_leaves=10
num_cat=0
split_feature=1 37 1 20 20 0 1 1 1
split_gain=9412.73 0.0191767 2.66012e-06 2.31511e-05 5.64336e-09 9.09495e-13 3.55271e-15 1.77636e-15 1.77636e-15
threshold=63.990901947021491 1.5000000000000002 64.997192382812514 3.4269064664840703 5.4105741977691659 55.935621261596687 39.506664276123054 55.460083007812507 48.540069580078132
decision_type=2 2 2 2 2 2 2 2 2
left_child=5 -2 3 -3 -5 -1 -7 8 -8
right_child=1 2 -4 4 -6 6 7 -9 -10
leaf_value=-0.08754909693986386 0.085569153919625038 0.087622141172483292 0.087549097252275554 0.087547944866448346 0.087549097252275554 -0.08754909693986386 -0.087549096939863763 -0.087549096939863735 -0.087549096939863791
leaf_weight=1549.2249901890755 12.322423383593557 12.18960380554199 1396.5443286895752 12.186197042465208 82.866504669189453 2.4500811398029319 1.5474196672439582 0.64475819468498219 1.1605647504329679
leaf_count=12014 6 5 573 5 34 19 12 5 9
internal_value=-0.00111712 0.0875336 0.0875497 0.0875573 0.0875489 -0.0875491 -0.0875491 -0.0875491 -0.0875491
internal_weight=3071.14 1516.11 1503.79 107.242 95.0527 1555.03 5.80282 3.35274 2.70798
internal_count=12682 623 617 44 39 12059 45 26 21
is_linear=0
shrinkage=0.05


Tree=4
num_leaves=12
num_cat=0
split_feature=1 1 42 52 5 4 2 38 1 2 0
split_gain=8623.68 0.00217211 0.0197689 1.17703e-05 6.15353e-06 2.78091e-05 7.6555e-06 2.97097e-06 5.49333e-06 1.28747e-08 4.54747e-13
threshold=63.990901947021491 64.997192382812514 21.681603431701664 358.98068237304693 35.514738082885749 10.347654819488527 74.994010925292983 0.53115251660346996 68.051048278808608 38.030277252197273 47.514757156372077
decision_type=2 2 2 2 2 2 2 2 2 2 2
left_child=-1 2 3 9 5 -3 -7 8 -6 -2 -9
right_child=1 4 -4 -5 7 6 -8 10 -10 -11 -12
leaf_value=-0.084401499327316609 0.084399647534342037 0.084485813239178142 0.082269446099304006 0.084443046563544094 0.084443664995125553 0.084401497872826886 0.084443664995125553 0.084401497872826886 0.084401497872826886 0.084401434882834414 0.084401497872826886
leaf_weight=1532.9185542613268 12.01286745071411 12.018367767333983 12.142425552010534 21.628162384033203 12.015677452087401 103.31168937683105 12.015677452087401 1162.8571548461914 21.623376846313477 62.467511653900146 62.467533111572266
leaf_count=12059 5 5 6 9 5 43 5 484 9 26 26
internal_value=-0.00107696 0.0843861 0.0841704 0.0844106 0.084403 0.0844134 0.0844059 0.0844019 0.0844166 0.0844011 0.0844015
internal_weight=3027.48 1494.56 108.251 96.1085 1386.31 127.346 115.327 1258.96 33.6391 74.4804 1225.32
internal_count=12682 623 46 40 577 53 48 524 14 31 510
is_linear=0
shrinkage=0.05


Tree=5
num_leaves=11
num_cat=0
split_feature=1 37 1 42 55 5 2 38 1 2
split_gain=8043.28 0.0153827 1.15326e-05 4.32898e-05 3.4973e-06 6.10225e-09 1.13526e-08 2.13731e-09 4.54747e-13 7.10543e-15
threshold=63.990901947021491 1.5000000000000002 64.997192382812514 21.681603431701664 36.65564155578614 34.787868499755866 73.977340698242202 0.42940051853656774 61.641267776489265 40.040645599365241
decision_type=2 2 2 2 2 2 2 2 2 2
left_child=8 -2 3 4 -3 6 -4 -7 -1 -10
right_child=1 2 5 -5 -6 7 -8 -9 9 -11
leaf_value=-0.081617124772128041 0.079971372476585201 0.081645685414055535 0.08161694964171981 0.081702709758215003 0.081616694993208269 0.081616551124704118 0.081615621605208966 0.081617123518925527 -0.081617124772127958 -0.081617124772128041
leaf_weight=1490.1215299889445 14.312660977244375 11.809234619140623 108.62280178070068 18.902411699295044 87.370358228683472 16.529510021209717 18.890743732452393 1234.9955577850342 3.3732943162322071 14.242798224091528
leaf_count=11927 7 5 46 8 37 7 8 523 27 114
internal_value=9.27184e-05 0.0816028 0.0816184 0.0816334 0.0816201 0.0816171 0.0816168 0.0816171 -0.0816171 -0.0816171
internal_weight=3019.17 1511.43 1497.12 118.082 99.1796 1379.04 127.514 1251.53 1507.74 17.6161
internal_count=12709 641 634 50 42 584 54 530 12068 141
is_linear=0
shrinkage=0.05


Tree=6
num_leaves=16
num_cat=0
split_feature=1 55 12 1 5 14 2 1 42 40 0 0 0 1 1
split_gain=7412.86 0.0025863 0.0267364 9.14411e-06 8.40272e-06 2.90301e-05 1.77424e-05 7.50117e-06 1.98798e-05 6.65605e-06 9.09495e-13 2.84217e-14 2.84217e-14 1.42109e-14 1.77636e-15
threshold=63.990901947021491 20.807277679443363 8.6761584281921404 65.777778625488295 35.880599975585945 33.692054748535163 74.994010925292983 64.997192382812514 21.681603431701664 0.11879611015319826 42.25996398925782 41.209329605102546 48.968622207641609 26.474831581115726 22.518654823303226
decision_type=2 2 2 2 2 2 2 2 2 2 2 2 2 2 2
left_child=10 2 -2 -4 5 6 -3 8 -6 -9 -1 -5 -12 14 -14
right_child=1 4 3 11 7 -7 -8 9 -10 -11 12 -13 13 -15 -16
leaf_value=-0.079139119824868279 0.076338174853330554 0.07913891672165041 0.079183321478611318 0.079139117288251237 0.079144813528524899 0.079229179112482201 0.079184849813360117 0.07917138416887777 0.079209409532973771 0.079139109940498817 -0.079139119824868279 0.079139119348274556 -0.079139119824868279 -0.079139119824868279 -0.079139119824868251
leaf_weight=1386.2219785451889 9.3817372620105726 120.36507058143616 13.893830776214598 62.497366905212402 83.334056377410889 11.582913160324095 25.472314596176147 16.207696676254272 13.897102832794188 1113.3789422512054 59.397266507148743 11.573586463928221 3.4291205406188956 26.943089962005615 1.9594974517822263
leaf_count=11319 5 52 6 27 36 5 11 7 6 481 485 5 28 220 16
internal_value=8.98952e-05 0.0791246 0.0788755 0.0791461 0.0791421 0.079153 0.0791469 0.0791407 0.079154 0.0791396 -0.0791391 0.0791391 -0.0791391 -0.0791391 -0.0791391
internal_weight=2959.54 1481.58 97.3465 87.9648 1384.24 157.42 145.837 1226.82 97.2312 1129.59 1477.95 74.071 91.729 32.3317 5.38862
internal_count=12709 641 43 38 598 68 63 530 42 488 12068 32 749 264 44
is_linear=0
shrinkage=0.05


Tree=7
num_leaves=16
num_cat=0
split_feature=1 37 55 11 6 53 43 1 0 9 13 13 1 1 17
split_gain=6848.79 0.0159031 6.83679e-06 1.48511e-05 3.46179e-06 5.07826e-06 2.74579e-06 6.73659e-07 4.54747e-13 4.54747e-13 2.84217e-14 2.84217e-14 1.77636e-15 8.88178e-16 8.88178e-16
threshold=63.990901947021491 1.5000000000000002 13.263734340667726 9.0179734230041522 50.886316299438484 848.12005615234386 49.371103286743171 64.997192382812514 55.935621261596687 48.978635787963874 58.707242965698249 30.7713737487793 34.353704452514656 27.938219070434574 22.469054222106937
decision_type=2 2 2 2 2 2 2 2 2 2 2 2 2 2 2
left_child=8 -2 3 -3 7 -6 -5 -4 9 10 11 -1 13 -10 -12
right_child=1 2 4 6 5 -7 -8 -9 12 -11 14 -13 -14 -15 -16
leaf_value=-0.076921963381528333 0.07521380386719978 0.076990762938519627 0.07692616744124843 0.076944009488506881 0.076965812111575174 0.076921967368097435 0.076921907818368773 0.076921892415617671 -0.076921963381528291 -0.076921963381528333 -0.076921963381528305 -0.076921963381528333 -0.076921963381528305 -0.076921963381528277 -0.076921963381528277
leaf_weight=65.033413723111153 13.733257308602331 11.326910734176634 99.60540509223938 20.377870082855225 11.323775768280031 15.845574617385862 45.273040294647217 1231.4264900684357 0.83836813271045629 1343.9041167348623 1.9162700176239007 27.78591525554657 3.4732394069433212 1.1976687610149381 1.1976687610149381
leaf_count=543 7 5 44 9 5 7 20 544 7 11221 16 232 29 10 10
internal_value=8.73706e-05 0.0769072 0.0769234 0.0769379 0.0769226 0.0769402 0.0769288 0.0769222 -0.076922 -0.076922 -0.076922 -0.076922 -0.076922 -0.076922 -0.076922
internal_weight=2894.26 1448.91 1435.18 76.9778 1358.2 27.1694 65.6509 1331.03 1445.35 1439.84 95.9333 92.8193 5.50928 2.03604 3.11394
internal_count=12709 641 634 34 600 12 29 588 12068 12022 801 775 46 17 26
is_linear=0
shrinkage=0.05


Tree=8
num_leaves=13
num_cat=0
split_feature=49 55 28 11 25 29 5 4 48 49 14 4
split_gain=6341.69 0.00260878 0.0278246 1.33238e-05 1.27495e-05 3.96129e-05 4.9875e-06 3.19113e-05 2.33552e-06 2.05384e-06 3.42346e-07 9.09495e-13
threshold=63.990901947021491 20.807277679443363 8.5000000000000018 9.0179734230041522 17.500000000000004 11.500000000000002 35.880599975585945 9.9628839492797869 15.117529392242433 64.997192382812514 23.310480117797855 41.083074569702156
decision_type=2 2 2 2 2 2 2 2 2 2 2 2
left_child=11 2 -2 -4 5 -3 7 -6 -5 -8 -7 -1
right_child=1 4 3 8 6 10 9 -9 -10 -11 -12 -13
leaf_value=-0.074928721897533176 0.072008203523615352 0.075017065279185169 0.074991271097131162 0.074953537994814939 0.07502087412372499 0.074938496294259693 0.074936558272285111 0.074932349349470254 0.074928581144557194 0.07492870230616705 0.074928603464474441 -0.074928721897533176
leaf_weight=1371.333629027009 8.9553550332784635 17.693191289901733 11.054534673690794 11.048961877822874 11.058803319931028 11.046740293502806 90.580902814865112 128.13157320022583 61.853537321090698 1020.5849921703339 41.972054481506348 39.154245778918266
leaf_count=11733 5 8 5 5 5 5 41 58 28 462 19 335
internal_value=8.50961e-05 0.0749136 0.0746575 0.0749401 0.0749316 0.0749523 0.0749305 0.0749394 0.0749324 0.0749293 0.0749307 -0.0749287
internal_weight=2824.47 1413.98 92.9124 83.957 1321.07 70.712 1250.36 139.19 72.9025 1111.17 53.0188 1410.49
internal_count=12709 641 43 38 598 32 566 63 33 503 24 12068
is_linear=0
shrinkage=0.05


Tree=9
num_leaves=12
num_cat=0
split_feature=1 55 3 19 25 29 43 5 11 1 7
split_gain=5883.85 0.00257524 0.0281158 1.07095e-05 1.01648e-05 3.15917e-05 5.17053e-06 3.97593e-06 2.1031e-05 1.63584e-06 2.86915e-07
threshold=63.990901947021491 20.807277679443363 68.229743957519545 7.4808907508850107 17.500000000000004 11.500000000000002 44.669158935546882 35.880599975585945 9.0710902214050311 64.997192382812514 73.788219451904311
decision_type=2 2 2 2 2 2 2 2 2 2 2
left_child=-1 2 -2 -4 5 -3 -5 8 -6 -9 -7
right_child=1 4 3 6 7 10 -8 9 -10 -11 -12
leaf_value=-0.07312910393587789 0.070158082353385762 0.073209042363742885 0.073181744752202335 0.073166815022983431 0.073199420157506842 0.073128952471967906 0.073128975387274961 0.073136196964885589 0.073132362477518961 0.07312909304743305 0.073138128925370499
leaf_weight=1373.8658829927444 8.7268819957971555 17.2352454662323 15.074468612670897 10.764940023422239 12.924481391906737 40.88225245475769 55.944154977798462 88.229710102081299 122.65331482887268 994.08633708953857 10.760052442550657
leaf_count=12068 5 8 7 5 6 19 26 41 57 462 5
internal_value=8.30426e-05 0.0731136 0.0728558 0.0731437 0.0731317 0.0731504 0.0731351 0.0731307 0.0731388 0.0731297 0.0731309
internal_weight=2751.15 1377.28 90.5104 81.7836 1286.77 68.8776 66.7091 1217.89 135.578 1082.32 51.6423
internal_count=12709 641 43 38 598 32 31 566 63 503 24
is_linear=0
shrinkage=0.05


Tree=10
num_leaves=13
num_cat=0
split_feature=1 1 55 55 12 36 5 44 42 25 17 0
split_gain=5517.11 0.00272931 0.0291155 1.31043e-05 2.03641e-05 5.20236e-06 4.55522e-06 1.16854e-05 3.91908e-06 9.42237e-09 1.76314e-09 4.54747e-13
threshold=63.990901947021491 64.997192382812514 34.706283569335945 19.718931198120121 8.6761584281921404 9.5000000000000018 34.787868499755866 25.409122467041019 19.896203041076664 17.500000000000004 21.299745559692386 16.912143707275394
decision_type=2 2 2 2 2 2 2 2 2 2 2 2
left_child=11 2 -2 4 -3 -6 7 -5 10 -8 -4 -1
right_child=1 3 8 6 5 -7 9 -9 -10 -11 -12 -13
leaf_value=-0.07149806309082192 0.068427667018779864 0.071577748429571764 0.071497520519439625 0.071497659142156153 0.071502140730919359 0.071532217132670189 0.07149744057468109 0.071532274029528428 0.071530128322999501 0.07149803655818969 0.071496819387571145 -0.07149806309082192
leaf_weight=589.91194269061089 8.4846963584423047 12.572011947631834 62.767031669616699 77.412878751754761 60.679976463317871 18.842190742492676 71.135858535766602 35.590659141540527 10.467486619949339 979.17514538764954 10.461037158966063 761.27311500906944
leaf_count=5329 5 6 30 37 29 9 34 17 5 468 5 6877
internal_value=-0.000103702 0.0714812 0.0712186 0.0715005 0.0715186 0.0715093 0.071499 0.0715086 0.0715015 0.071498 0.0714974 -0.0714981
internal_weight=2698.77 1347.59 92.1803 1255.41 92.0942 79.5222 1163.31 113.004 83.6956 1050.31 73.2281 1351.19
internal_count=12851 645 45 600 44 38 556 54 40 502 35 12206
is_linear=0
shrinkage=0.05


Tree=11
num_leaves=13
num_cat=0
split_feature=1 1 55 55 28 3 5 21 42 25 17 1
split_gain=5136.39 0.00270907 0.028839 1.05556e-05 1.80518e-05 6.06049e-06 3.67191e-06 8.09672e-06 3.15791e-06 7.72366e-09 1.41e-09 4.54747e-13
threshold=63.990901947021491 64.997192382812514 34.706283569335945 19.718931198120121 8.5000000000000018 69.228099822998061 34.787868499755866 3.2386902570724492 19.896203041076664 17.500000000000004 21.299745559692386 55.460083007812507
decision_type=2 2 2 2 2 2 2 2 2 2 2 2
left_child=11 2 -2 4 -3 -6 7 -5 10 -8 -4 -1
right_child=1 3 8 6 5 -7 9 -9 -10 -11 -12 -13
leaf_value=-0.070014652510337727 0.0669149316051285 0.07008987732119866 0.070014159368276332 0.070054583788206934 0.070060417814132511 0.070018989240197546 0.070014085653260394 0.070018146050268029 0.070043865675626121 0.0700146332852737 0.070013523034547734 -0.070014652510337727
leaf_weight=1244.1117706298828 8.2486764267086965 12.207352638244627 60.938365459442139 18.297159433364868 10.166422367095945 67.039106607437134 69.063366889953613 91.415258407592773 10.162839651107786 950.64805626869202 10.156256437301634 67.708225250244141
leaf_count=11576 5 6 30 9 5 33 34 45 5 468 5 630
internal_value=-0.000101557 0.0699973 0.0697318 0.0700168 0.0700334 0.0700244 0.0700155 0.0700242 0.0700178 0.0700146 0.0700141 -0.0700147
internal_weight=2620.16 1308.34 89.5061 1218.84 89.4129 77.2055 1129.42 109.712 81.2575 1019.71 71.0946 1311.82
internal_count=12851 645 45 600 44 38 556 54 40 502 35 12206
is_linear=0
shrinkage=0.05


Tree=12
num_leaves=15
num_cat=0
split_feature=1 1 55 55 28 3 42 35 0 39 52 0 1 1
split_gain=4789.04 0.00270952 0.0287808 8.54443e-06 1.46106e-05 4.90511e-06 2.55557e-06 2.16007e-06 2.35035e-06 2.08867e-06 1.16395e-09 4.54747e-13 3.55271e-15 2.22045e-16
threshold=63.990901947021491 64.997192382812514 34.706283569335945 19.718931198120121 8.5000000000000018 69.228099822998061 19.896203041076664 14.500000000000002 38.163803100585945 56.783843994140632 351.55186462402349 51.797798156738288 20.972982406616214 17.868339538574222
decision_type=2 2 2 2 2 2 2 2 2 2 2 2 2 2
left_child=11 2 -2 4 -3 -6 10 9 -9 -5 -4 -1 13 -13
right_child=1 3 6 7 5 -7 -8 8 -10 -11 -12 12 -14 -15
leaf_value=-0.06866126920988401 0.065518219294511015 0.068729995748057812 0.068660815869028294 0.068661450866239523 0.068703079566581546 0.068665227594520692 0.068687955276936816 0.068661196843045114 0.068695736291249074 0.068677132295131768 0.068660228693502565 -0.068661269209884024 -0.06866126920988401 -0.068661269209883871
leaf_weight=1258.0541930496693 8.0093724653124792 11.835860252380369 59.079648971557617 1053.6033289432526 9.8567634820938093 64.994605541229248 9.8531351089477521 9.8466997146606463 9.8549368381500226 21.671095490455627 9.846466660499571 0.52097655832767376 12.711828023195265 0.52097655832767487
leaf_count=12074 5 6 30 535 5 33 5 5 5 11 5 5 122 5
internal_value=-9.96049e-05 0.0686435 0.0683738 0.0686633 0.0686784 0.0686702 0.0686641 0.0686621 0.0686785 0.0686618 0.0686607 -0.0686613 -0.0686613 -0.0686613
internal_weight=2540.26 1268.45 86.7886 1181.66 86.6872 74.8514 78.7793 1094.98 19.7016 1075.27 68.9261 1271.81 13.7538 1.04195
internal_count=12851 645 45 600 44 38 40 556 10 546 35 12206 132 10
is_linear=0
shrinkage=0.05


Tree=13
num_leaves=12
num_cat=0
split_feature=1 37 1 13 55 1 44 9 42 17 5
split_gain=4471.22 0.00645597 0.029093 2.01002e-05 1.451e-05 7.62495e-05 4.101e-06 7.82502e-07 1.5286e-07 4.94534e-07 2.84208e-08
threshold=63.990901947021491 2.5000000000000004 68.051048278808608 32.998182296752937 37.791809082031257 64.997192382812514 53.099506378173835 72.996704101562514 28.815602302551273 5.0799143314361581 35.880599975585945
decision_type=2 2 2 2 2 2 2 2 2 2 2
left_child=-1 2 -2 -4 5 -3 -7 -5 10 -10 -6
right_child=1 4 3 7 8 6 -8 -9 9 -11 -12
leaf_value=-0.067422956811001716 0.064025130253254278 0.06757596619474171 0.067519033761015188 0.067442134000631315 0.067422063401928356 0.067427875951770577 0.067456894101836515 0.067422741606597489 0.067435935115452456 0.06742278773888094 0.067422940903419562
leaf_weight=1231.4317306429148 7.7297384813427916 9.5742471218109113 9.5593159198761004 9.5391535758972186 102.96585130691528 137.30988144874573 13.360274553298948 11.440865755081175 9.537537217140196 28.602200865745544 888.57884168624878
leaf_count=12206 5 5 5 5 54 72 7 6 5 15 466
internal_value=-9.78166e-05 0.0674046 0.0667654 0.0674589 0.0674251 0.0674391 0.0674304 0.0674316 0.067423 0.0674261 0.0674228
internal_weight=2459.63 1228.2 38.2691 30.5393 1189.93 160.244 150.67 20.98 1029.68 38.1397 991.545
internal_count=12851 645 21 16 624 84 79 11 540 20 520
is_linear=0
shrinkage=0.05


Tree=14
num_leaves=12
num_cat=0
split_feature=1 37 20 44 20 1 44 22 16 18 0
split_gain=4179.67 0.00651713 0.0297624 1.2291e-05 9.90074e-06 6.37066e-05 3.58597e-06 2.10556e-06 1.26314e-07 5.33216e-08 4.54747e-13
threshold=63.990901947021491 2.5000000000000004 6.5142080783844003 30.017864227294925 3.835535049438477 64.997192382812514 53.099506378173835 26.716998100280765 50.736822128295906 5.7889850139617929 49.741922378540046
decision_type=2 2 2 2 2 2 2 2 2 2 2
left_child=10 2 -2 -4 5 -3 -7 -5 9 -6 -1
right_child=1 4 3 7 8 6 -8 -9 -10 -11 -12
leaf_value=-0.066286976129421402 0.062797846935446863 0.066427501977095002 0.06636997765050659 0.066320261216239212 0.066289371279044024 0.066290742975445446 0.066318147252130422 0.066286479679149135 0.066292824977610743 0.06628688830447392 -0.066286976129421402
leaf_weight=1169.0795690864325 7.4808313548564902 9.2607359886169416 11.09316921234131 9.2301318645477313 22.13102912902832 156.76813697814941 12.921327710151671 9.2204319238662702 9.2222560644149763 940.49595975875854 21.855602025985718
leaf_count=11982 5 5 6 5 12 85 7 5 5 510 224
internal_value=-9.61798e-05 0.066268 0.065615 0.0663284 0.066289 0.0662998 0.0662928 0.0663034 0.066287 0.0662869 -0.066287
internal_weight=2378.76 1187.82 37.0246 29.5437 1150.8 178.95 169.689 18.4506 971.849 962.627 1190.94
internal_count=12851 645 21 16 624 97 92 10 527 522 12206
is_linear=0
shrinkage=0.05


Tree=15
num_leaves=11
num_cat=0
split_feature=1 37 55 1 44 1 55 37 0 1
split_gain=3909.83 0.021964 2.72865e-05 4.86214e-05 7.7369e-06 5.05349e-06 2.19417e-05 4.65324e-06 2.27374e-13 1.77636e-15
threshold=63.990901947021491 1.5000000000000002 13.263734340667726 65.777778625488295 45.746250152587898 64.997192382812514 43.325082778930671 2.5000000000000004 53.575941085815437 54.31935119628907
decision_type=2 2 2 2 2 2 2 2 2 2
left_child=8 -2 3 -3 -5 6 -4 -7 -1 -10
right_child=1 2 5 4 -6 7 -8 -9 9 -11
leaf_value=-0.065242366487938672 0.06298501508774193 0.06538684382629309 0.065322631865588218 0.06524614861358527 0.065292531644965665 0.06526430552831447 0.065245640882311884 0.065242444430659616 -0.065242366487938686 -0.065242366487938533
leaf_weight=1138.650985956192 10.846886239945887 8.9522982835769636 10.719076752662657 32.072044014930725 12.492597103118895 24.960703372955322 67.706457257270813 981.63429892063141 8.1062901318073237 0.84833268821239549
leaf_count=12080 7 5 6 18 7 14 38 551 86 9
internal_value=4.14945e-05 0.0652243 0.0652457 0.0652805 0.0652592 0.0652439 0.0652562 0.065243 -0.0652424 -0.0652424
internal_weight=2296.99 1149.38 1138.54 53.5169 44.5646 1085.02 78.4255 1006.6 1147.61 8.95462
internal_count=12821 646 639 30 25 609 44 565 12175 95
is_linear=0
shrinkage=0.05


Tree=16
num_leaves=11
num_cat=0
split_feature=1 37 55 1 24 1 55 37 1 1
split_gain=3662.86 0.0224052 2.24131e-05 3.99397e-05 6.26758e-06 4.14939e-06 1.80255e-05 3.8213e-06 2.27374e-13 3.55271e-15
threshold=63.990901947021491 1.5000000000000002 13.263734340667726 65.777778625488295 11.500000000000002 64.997192382812514 43.325082778930671 2.5000000000000004 61.641267776489265 62.268032073974616
decision_type=2 2 2 2 2 2 2 2 2 2
left_child=8 -2 3 -3 -5 6 -4 -7 -1 -10
right_child=1 2 5 4 -6 7 -8 -9 9 -11
leaf_value=-0.064279661225171744 0.061960288289686694 0.064412948037228052 0.064353714869733847 0.064325730815741666 0.064283236578617661 0.064299904087773696 0.064282684195582848 0.064279738713723819 -0.064279661225171744 -0.064279661225171744
leaf_weight=1094.1045489907265 10.48416944593191 8.6411571502685529 10.345900058746336 12.057230591773985 30.953334450721741 24.090381622314453 65.344530820846558 947.38730454444885 4.4575640559196463 9.006098806858061
leaf_count=12027 7 5 6 7 18 14 38 551 49 99
internal_value=4.08695e-05 0.0642608 0.0642827 0.0643149 0.0642951 0.0642811 0.0642924 0.0642802 -0.0642797 -0.0642797
internal_weight=2216.87 1109.3 1098.82 51.6517 43.0106 1047.17 75.6904 971.478 1107.57 13.4637
internal_count=12821 646 639 30 25 609 44 565 12175 148
is_linear=0
shrinkage=0.05


Tree=17
num_leaves=11
num_cat=0
split_feature=1 37 55 1 44 1 55 37 1 1
split_gain=3434.78 0.0229451 1.84676e-05 3.29043e-05 5.32834e-06 3.41925e-06 1.48513e-05 3.1489e-06 2.27374e-13 2.84217e-14
threshold=63.990901947021491 1.5000000000000002 13.263734340667726 65.777778625488295 45.746250152587898 64.997192382812514 43.325082778930671 2.5000000000000004 12.590526580810549 1.0000000180025095e-35
decision_type=2 2 2 2 2 2 2 2 2 2
left_child=8 -2 3 -3 -5 6 -4 -7 9 -1
right_child=1 2 5 4 -6 7 -8 -9 -10 -11
leaf_value=-0.063390651150654273 0.061001951870481214 0.063513844646971726 0.063459098571862757 0.063393777961196079 0.063433678257475354 0.063409359987079542 0.06339344163809181 0.063390718270067675 -0.063390651150654273 -0.063390651150654273
leaf_weight=14.385528802871702 10.125533767044542 8.333114027976988 9.9765248298645002 29.845999598503113 11.626671552658079 23.229105830192566 63.007314085960388 913.49899196624756 909.97241342067719 143.59213811159134
leaf_count=164 7 5 6 18 7 14 38 551 10374 1637
internal_value=4.0288e-05 0.0633708 0.0633935 0.0634232 0.063405 0.063392 0.0634024 0.0633912 -0.0633907 -0.0633907
internal_weight=2137.59 1069.64 1059.52 49.8058 41.4727 1009.71 72.9838 936.728 1067.95 157.978
internal_count=12821 646 639 30 25 609 44 565 12175 1801
is_linear=0
shrinkage=0.05


Tree=18
num_leaves=14
num_cat=0
split_feature=49 37 20 49 44 49 20 37 10 11 11 11 20
split_gain=3223.78 0.0235782 1.59624e-05 2.63487e-05 4.49912e-06 2.79902e-06 1.22685e-05 2.58556e-06 2.27374e-13 5.68434e-14 7.10543e-15 7.10543e-15 4.44089e-16
threshold=63.990901947021491 1.5000000000000002 1.1143051385879519 65.777778625488295 45.746250152587898 64.997192382812514 3.835535049438477 2.5000000000000004 78.223987579345717 5.7345347404479989 5.535607337951661 1.0000000180025095e-35 6.4179179668426523
decision_type=2 2 2 2 2 2 2 2 2 2 2 2 2
left_child=8 -2 3 -3 -5 6 -4 -7 -1 10 11 -10 -12
right_child=1 2 5 4 -6 7 -8 -9 9 -11 12 -13 -14
leaf_value=-0.062568156805462266 0.060103009656658594 0.062682224729549069 0.062631534803047284 0.062569609183163719 0.062607995986687495 0.062585478647989287 0.062570738866722306 0.062568270093049091 -0.062568156805462141 -0.062568156805462266 -0.062568156805462266 -0.062568156805462266 -0.062568156805462224
leaf_weight=833.92047694325447 9.7720986455678922 8.0291885137557966 9.6121611595153791 23.960175275802612 11.201770901679991 22.379673719406128 60.70237135887146 884.87294089794159 3.5493169873952928 169.77566256374121 0.42253773659467597 19.859273619949818 1.3521207571029661
leaf_count=9868 7 5 6 15 7 14 38 554 42 2009 5 235 16
internal_value=3.97496e-05 0.0625474 0.0625708 0.0626005 0.0625818 0.0625694 0.062579 0.0625687 -0.0625682 -0.0625682 -0.0625682 -0.0625682 -0.0625682
internal_weight=2059.41 1030.53 1020.76 43.1911 35.1619 977.567 70.3145 907.253 1028.88 194.959 25.1832 23.4086 1.77466
internal_count=12821 646 639 27 22 612 44 568 12175 2307 298 277 21
is_linear=0
shrinkage=0.05


Tree=19
num_leaves=11
num_cat=0
split_feature=1 37 20 1 44 1 20 37 5 1
split_gain=3028.22 0.0243001 1.32202e-05 2.18228e-05 3.72623e-06 2.31684e-06 1.0162e-05 2.14074e-06 4.54747e-13 2.84217e-14
threshold=63.990901947021491 1.5000000000000002 1.1143051385879519 65.777778625488295 45.746250152587898 64.997192382812514 3.835535049438477 2.5000000000000004 17.752672195434574 35.671773910522468
decision_type=2 2 2 2 2 2 2 2 2 2
left_child=8 -2 3 -3 -5 6 -4 -7 9 -1
right_child=1 2 5 4 -6 7 -8 -9 -10 -11
leaf_value=-0.061805881061065229 0.059257292744433969 0.061911686341383269 0.061864672054013997 0.061807233733365101 0.061842838660627522 0.061821952356514158 0.061808279682745271 0.061805993275070484 -0.061805881061065229 -0.061805881061065229
leaf_weight=115.6015455275774 9.4248000904917699 7.7302354574203482 9.2538238763809186 23.065593361854553 10.783932685852049 21.544426679611206 58.436038374900818 851.83405363559723 848.17854586243629 26.683537602424622
leaf_count=1421 7 5 6 15 7 14 38 554 10426 328
internal_value=3.92509e-05 0.0617841 0.0618083 0.0618359 0.0618186 0.0618071 0.061816 0.0618064 -0.0618059 -0.0618059
internal_weight=1982.54 992.073 982.648 41.5798 33.8495 941.068 67.6899 873.378 990.464 142.285
internal_count=12821 646 639 27 22 612 44 568 12175 1749
is_linear=0
shrinkage=0.05


Tree=20
num_leaves=30
num_cat=0
split_feature=5 43 43 18 18 43 2 43 0 43 0 7 13 2 7 0 18 35 25 43 0 5 52 18 18 18 0 0 0
split_gain=1150.14 357.717 198.866 79.817 78.6716 41.5201 52.0587 35.8318 25.3962 20.052 22.4398 36.7077 18.2436 16.995 16.9159 16.2444 10.1608 8.51254 7.38763 7.36485 6.0097 5.81699 5.62804 4.49348 2.96339 2.22961 1.42109e-14 7.10543e-15 2.22045e-16
threshold=36.531240463256843 39.999254226684577 49.371103286743171 32.649026870727546 28.842257499694828 36.671506881713874 45.354534149169929 46.016479492187507 19.476068496704105 45.897336959838874 26.755518913269047 66.470119476318374 28.560807228088382 77.418758392333999 66.470119476318374 16.506108283996586 39.032049179077156 16.500000000000004 28.500000000000004 50.939704895019538 12.498617649078371 15.787702083587648 0.94664630293846141 44.523130416870124 67.491306304931655 48.243530273437507 34.309514999389656 32.365579605102546 45.146970748901374
decision_type=2 2 2 2 2 2 2 2 2 2 2 2 2 2 2 2 2 2 2 2 2 2 2 2 2 2 2 2 2
left_child=2 5 9 12 7 22 15 8 -3 18 11 -11 20 -9 -14 -7 19 -12 24 -6 -4 28 -2 -23 -1 -18 -24 -8 -5
right_child=1 4 3 21 16 6 27 13 -10 10 17 -13 14 -15 -16 -17 25 -19 -20 -21 -22 23 26 -25 -26 -27 -28 -29 -30
leaf_value=-0.059888775775120251 0.018815595956527143 0.016372724133444625 0.035531918723015886 -0.06109830176579191 0.029502594807490456 0.044139470304664009 -0.061098301765791889 0.042763937504735512 -0.039289801418476697 0.04483382127730455 -0.061098301765791896 -0.061098301765791896 0.034099504079386465 -0.00085792345580383306 -0.061098301765791896 -0.027003820742542525 0.052631227026861661 0.061098077841716385 0.044359249755061496 0.052399590277360956 -0.056295923001021687 0.030807394985709044 -0.061098301765791896 0.056954149605188215 -0.017439620262524866 0.059418636586869557 -0.061098301765791896 -0.061098301765791896 -0.061098301765791764
leaf_weight=597.70350122451782 2.2616631984710684 53.665586590766907 1.870285391807555 0.78258037567138561 63.855609893798828 32.672963619232178 26.920764923095707 128.80797350406647 33.150139451026917 18.793702721595764 39.129018783569336 14.477736949920653 15.217542648315431 27.010188579559326 6.7301912307739249 10.63559854030609 182.64118525385857 1.4790967702865589 1.7138812541961659 78.039757490158081 37.634265184402466 25.570173621177673 84.753454685211182 45.978733658790588 4.1398804187774649 358.45994031429291 0.46954822540283103 0.78258037567138572 0.46954822540283203
leaf_count=7566 11 274 6 10 243 77 344 321 352 43 500 185 51 184 86 100 275 1 4 120 463 94 1083 50 35 302 6 10 6
internal_value=-0.00026613 0.0334317 -0.0452744 0.0103195 0.0453165 -0.0359761 -0.00757143 0.02086 -0.00488173 -0.0562919 -0.0317046 -0.00126149 -0.0316423 0.0352023 0.00490745 0.0266683 0.0540047 -0.0566475 -0.0593016 0.0420955 -0.0519485 0.0457401 -0.0590324 0.0476098 -0.0595968 0.0571276 -0.0610983 -0.0610983 -0.0610983
internal_weight=1895.82 1084.13 811.69 134.253 925.63 158.497 71.0119 242.634 86.8157 677.437 73.8796 33.2714 61.4523 155.818 21.9477 43.3086 682.996 40.6081 603.557 141.895 39.5046 72.801 87.4847 71.5489 601.843 541.101 85.223 27.7033 1.25213
internal_count=12802 3702 9100 766 2071 1631 531 1131 626 8334 729 228 606 505 137 177 940 501 7605 363 469 160 1100 144 7601 577 1089 354 16
is_linear=0
shrinkage=0.05


Tree=21
num_leaves=25
num_cat=0
split_feature=49 37 49 18 43 14 43 48 43 14 41 41 18 2 18 43 3 18 17 2 18 17 37 12
split_gain=2697.54 0.032439 0.0134723 0.00442211 0.0020189 0.00264581 0.00173011 0.00158963 0.00153514 0.0019275 0.0011363 0.00105848 0.000869619 0.000517191 0.000423048 0.000386642 0.00036767 0.000333831 0.000282213 0.000202799 0.000174148 6.97831e-05 5.50905e-05 4.3423e-06
threshold=63.990901947021491 1.5000000000000002 47.335252761840827 37.174631118774421 39.999254226684577 36.136291503906257 45.897336959838874 20.81728553771973 39.999254226684577 31.811689376831058 24.728551864624027 20.723043441772464 28.842257499694828 80.892391204833999 48.243530273437507 40.652021408081062 88.462043762207045 28.842257499694828 0.071106284856796279 45.493436813354499 67.491306304931655 0.071106284856796279 9.5000000000000018 6.4765367507934579
decision_type=2 2 2 2 2 2 2 2 2 2 2 2 2 2 2 2 2 2 2 2 2 2 2 2
left_child=2 -2 4 6 20 10 7 -3 16 11 -6 -10 -11 -8 18 -16 19 -7 -5 -4 21 -1 -18 -22
right_child=1 3 8 14 5 17 13 -9 9 12 -12 -13 -14 -15 15 -17 22 -19 -20 -21 23 -23 -24 -25
leaf_value=-0.060708639038112383 0.057249937012377655 0.060858130720205343 -0.06077096758172354 0.060866159633151173 -0.060538626294986991 -0.061048415045179438 0.060637280141518125 0.061559621238068608 -0.060767315994708263 -0.061180172794414928 -0.060880019543028588 -0.061281091766511558 -0.061589926160836521 0.060858401346254178 0.060802460668635219 0.060465510248156322 -0.061535830106062284 -0.061560740413102957 0.060549719619296262 -0.060441929871168247 -0.060723217879665628 -0.060456169399440512 -0.060904840674330302 -0.060906429494408554
leaf_weight=2.751028634607791 7.3563509881496421 71.453361392021179 11.194992318749433 7.2865525484085074 211.16948698461056 20.197776481509212 194.30077874660492 9.1050052642822248 31.197498962283134 26.94705294072628 27.554122857749462 14.771265275776384 24.926197752356529 30.610211730003357 8.7124706506729108 373.1148773431778 1.3627314865589131 3.7736933454871169 213.30246019363403 8.0504215285181981 0.38263297080993597 536.00843054056168 0.46359812468290318 2.0895404666662216
leaf_count=36 6 49 146 5 2791 259 135 6 407 343 357 187 310 21 6 262 17 47 149 107 5 7118 6 27
internal_value=-0.000266012 0.0605568 -0.0605881 0.0605836 -0.0605146 -0.0606283 0.0607386 0.0609374 -0.0610848 -0.0611682 -0.060578 -0.0609324 -0.0613771 0.0606674 0.060505 0.0604732 -0.0606977 -0.0611291 0.0605602 -0.0606333 -0.0604594 -0.0604575 -0.0613757 -0.0608781
internal_weight=1838.08 915.242 922.84 907.886 803.927 262.695 305.469 80.5584 118.914 97.842 238.724 45.9688 51.8733 224.911 602.416 381.827 21.0717 23.9715 220.589 19.2454 541.232 538.759 1.82633 2.47217
internal_count=12802 639 12163 633 10640 3454 211 55 1523 1247 3148 594 653 156 422 268 276 306 154 253 7186 7154 23 32
is_linear=0
shrinkage=0.05


Tree=22
num_leaves=30
num_cat=0
split_feature=5 43 43 18 18 43 43 2 0 43 0 7 13 7 0 2 25 0 18 42 51 17 18 43 18 21 9 2 17
split_gain=1010.59 312.65 176.693 72.3352 69.7092 37.9299 37.1253 45.8617 32.5485 17.8858 19.9938 32.245 16.1261 14.8041 14.0914 11.357 6.54315 5.59172 5.33201 9.42181 5.21073 5.07398 3.47933 3.87886 2.96028 1.32407 0.826232 1.32111e-09 1.06382e-10
threshold=36.531240463256843 39.999254226684577 49.371103286743171 36.439983367919929 32.649026870727546 46.016479492187507 36.671506881713874 45.354534149169929 20.96486854553223 45.897336959838874 26.755518913269047 66.470119476318374 28.560807228088382 66.470119476318374 16.506108283996586 65.12320709228517 28.500000000000004 10.46649742126465 44.523130416870124 6.1971995830535898 8.8113598823547381 0.071106284856796279 46.552364349365241 43.374841690063484 45.163438796997077 0.27760758996009832 90.993320465087905 38.502616882324226 0.23732812702655795
decision_type=2 2 2 2 2 2 2 2 2 2 2 2 2 2 2 2 2 2 2 2 2 2 2 2 2 2 2 2 2
left_child=2 6 9 5 12 8 21 14 -3 16 11 -11 17 -14 -8 -7 24 -4 19 -6 -12 -2 23 -5 -1 -24 -20 -23 -9
right_child=1 3 4 22 18 15 7 28 -10 10 20 -13 13 -15 -16 -17 -18 -19 26 -21 -22 27 25 -25 -26 -27 -28 -29 -30
leaf_value=-0.059157703187712053 0.017738189649614017 0.018139578830975129 0.038136660725459397 0.026531875536171937 0.046778816543731734 0.044956408481216417 0.042365010593523253 -0.059827240516274194 -0.042911143290774327 0.043062933132885332 0.024241791682516074 -0.05982692334557943 0.032452950201313509 -0.059826005161340928 -0.025580592460231096 0.020258241545674044 0.042581648386694211 -0.054787811125082658 0.057441371997462444 -0.018765909813024551 -0.059826534634447606 -0.059827473481435869 -0.061075368935076473 0.051577023935356292 -0.043661960129680884 0.057782507951573171 0.036086285146050487 -0.059827968427024918 -0.059828030413967372
leaf_weight=524.10828433185816 2.1663948595523825 75.481736660003662 1.6973212435841549 17.022096298635006 17.240058735013012 145.2314678132534 30.769662834703922 0.43362629413604992 30.715848051011562 17.690173089504245 1.9439810290932644 13.369853951036928 14.456048481166365 6.2147855609655371 10.14736185967922 68.498084649443626 1.6136909946799267 35.047367058694363 37.770905926823616 8.0395156294107419 35.555640645325184 17.273053340613842 0.23446498811244865 168.41435114294291 32.746792852878571 360.52527152746916 5.146549627184867 61.433439008891582 25.151680007576942
leaf_count=7207 11 382 5 68 36 326 77 6 360 43 9 185 51 86 100 330 4 464 37 71 492 239 3 264 394 338 16 850 348
internal_value=-0.000263289 0.03233 -0.0441531 0.0437854 0.00997377 0.0249053 -0.0349933 -0.00731909 0.000481694 -0.0549963 -0.0308947 -0.00122622 -0.0306207 0.00470884 0.0255146 0.0370409 -0.0579551 -0.0504954 0.0441505 0.025934 -0.0554684 -0.05775 0.0548442 0.049278 -0.0582465 0.0577053 0.0548805 -0.0598279 -0.059828
internal_weight=1766.14 1013.5 752.641 866.123 125.613 319.927 147.375 66.5023 106.198 627.028 68.5596 31.06 57.4155 20.6708 40.917 213.73 558.469 36.7447 68.197 25.2796 37.4996 80.8729 546.196 185.436 556.855 360.76 42.9175 78.7065 25.5853
internal_count=12802 3702 9100 2071 766 1398 1631 531 742 8334 729 228 606 137 177 656 7605 469 160 107 501 1100 673 332 7601 341 53 1089 354
is_linear=0
shrinkage=0.05


Tree=23
num_leaves=29
num_cat=0
split_feature=1 1 53 13 13 1 3 2 14 0 14 4 51 53 0 9 13 2 53 13 0 2 0 17 1 2 53 53
split_gain=2424.3 0.0437181 0.0146929 0.0077972 0.00712533 0.00630688 0.0425259 0.00570939 0.0035985 0.00352856 0.00255689 0.00225145 0.00270118 0.00220274 0.00166295 0.00147093 0.00137591 0.00118803 0.00116296 0.00113525 0.000810774 0.000684766 0.000638041 0.000626308 0.000620119 0.000492931 0.000404433 0.000231481
threshold=63.990901947021491 47.335252761840827 736.66430664062511 32.998182296752937 36.478002548217781 64.997192382812514 68.391708374023452 70.758945465087905 36.37793159484864 32.925306320190437 37.297279357910163 14.145903110504152 17.004934310913089 742.74615478515636 27.670713424682621 49.828487396240241 24.673418998718265 64.339000701904311 966.44351196289074 21.361347198486332 18.157605171203617 60.347043991088874 7.4265415668487558 0.17405644059181216 34.561691284179695 66.316539764404311 1011.8265075683595 870.49398803710949
decision_type=2 2 2 2 2 2 2 2 2 2 2 2 2 2 2 2 2 2 2 2 2 2 2 2 2 2 2 2
left_child=1 4 11 8 10 6 -4 9 21 -6 26 12 -2 14 -5 -14 -13 -12 19 -7 -15 -3 -10 -20 -9 -18 -1 -8
right_child=2 3 5 13 7 18 27 24 22 -11 17 16 15 20 -16 -17 25 -19 23 -21 -22 -23 -24 -25 -26 -27 -28 -29
leaf_value=-0.059300408745582317 0.060937424598370128 -0.059454928225580607 0.05463221680928583 -0.060377623424418561 -0.059465303774917967 0.060021757600417017 0.059675335087777254 -0.06024606839805479 -0.059528356656156356 -0.060340019950568313 -0.059595504829504875 0.060387483372900133 0.060611749001996888 -0.060788736441617058 -0.060996651219108092 0.059857568263380539 0.05963231048345783 -0.060350773465519952 0.059816143419286066 0.059464181757485114 -0.061388664183342392 -0.059963994944330169 -0.060922817584423729 0.059331502040089627 -0.060777950562130159 0.059848202300689816 -0.059516645457310613 0.059362995542240761
leaf_weight=576.69118162989616 7.3145531415939322 20.592274829745296 5.4090899825096157 36.045750349760056 85.744665183126926 9.6543874740600568 13.511723875999452 13.54157940298319 0.91775229573249628 13.320362344384192 16.520708151161674 7.0440207719802848 7.155431628227233 9.3943415805697459 15.520679384469984 67.021435856819153 136.07769155502319 7.6028627082705489 6.7850189208984366 167.74908947944641 14.061081029474733 9.7259652167558652 7.7257164269685745 381.08811092376709 9.2052564993500692 32.815524339675903 22.465968236327171 10.574499249458311
leaf_count=8286 5 293 5 483 1219 7 10 183 13 179 233 5 5 123 200 49 101 102 5 126 177 134 100 289 120 24 318 8
internal_value=-0.000263521 -0.0595367 0.0594879 -0.0604486 -0.0593972 0.0593513 0.0586385 -0.0597469 -0.0598748 -0.0595829 -0.0593288 0.0598034 0.0600207 -0.0607467 -0.0605639 0.0599303 0.0597028 -0.0598335 0.0593885 0.0594945 -0.0611484 -0.0596182 -0.0607748 0.05934 -0.0604613 0.0596743 -0.0593085 0.0595382
internal_weight=1711.28 859.076 852.201 113.984 745.093 594.772 29.4953 121.812 38.9617 99.065 623.281 257.429 81.4914 75.0219 51.5664 74.1769 175.937 24.1236 565.277 177.403 23.4554 30.3182 8.64347 387.873 22.7468 168.893 599.157 24.0862
internal_count=12802 12163 639 1523 10640 450 23 1701 540 1398 8939 189 59 983 683 54 130 335 427 133 300 427 113 294 303 125 8604 18
is_linear=0
shrinkage=0.05


Tree=24
num_leaves=25
num_cat=0
split_feature=1 1 37 18 5 5 47 0 18 1 11 31 3 5 0 0 37 47 18 18 18 1 0 9
split_gain=2284.18 0.0365611 0.0360489 0.0115137 0.00977776 0.00797113 0.00462059 0.00261432 0.00222888 0.00177262 0.00163862 0.00231144 0.00142394 0.0012867 0.0029318 0.000872567 0.000796045 0.000755944 0.000774101 0.000719032 0.000351364 0.000227128 0.000212041 0.000129337
threshold=63.990901947021491 47.335252761840827 1.5000000000000002 37.174631118774421 36.304346084594734 36.531240463256843 1.0000000180025095e-35 33.234561920166023 36.439983367919929 29.224814414978031 13.858228683471681 12.500000000000002 74.629596710205092 33.217388153076179 15.184740066528322 15.377117633819582 9.5000000000000018 1.0000000180025095e-35 33.371763229370124 48.243530273437507 44.523130416870124 42.761756896972663 44.150552749633796 93.822807312011733
decision_type=2 2 2 2 2 2 2 2 2 2 2 2 2 2 2 2 2 2 2 2 2 2 2 2
left_child=1 5 -2 10 17 20 7 -7 12 -8 11 -4 -6 14 -5 -10 -12 22 -19 -15 21 -1 -3 -22
right_child=2 4 3 13 8 6 9 -9 15 -11 16 -13 -14 19 -16 -17 -18 18 -20 -21 23 -23 -24 -25
leaf_value=-0.058755892657265323 0.055261489491747098 -0.058868870359050279 0.059316107703130706 0.059942723570983736 -0.059639694908903543 -0.058871574064621207 -0.059263385934939274 -0.059639861320324672 -0.060104013812074898 -0.059853284150009449 0.059085572591035064 0.060183203697165066 -0.060167421030479375 0.058889098731799407 0.058895095097694243 -0.060765745853452124 0.059372813761222533 -0.059145340672146988 -0.060037687236846819 0.05876316342866094 -0.058908379912621094 -0.058915527730788467 -0.059323208835336039 -0.059268363668238601
leaf_weight=519.77850344777107 6.6173506304621688 18.362708888947967 96.074254035949707 8.2144234180450422 20.594884902238846 79.942385166883469 24.474512010812759 12.852887637913225 7.3101040795445469 26.550210408866405 142.39409494400024 8.354092597961424 33.696687705814838 177.24542427062988 35.709444403648376 15.639880925416945 29.03943657875061 7.2631120532751066 3.652568481862545 314.37507915496826 25.467681802809242 23.279932834208012 2.9855616986751548 2.7661683931946746
leaf_count=7787 6 273 73 6 290 1188 354 181 100 368 110 6 457 139 28 204 22 106 50 249 377 345 43 40
internal_value=-0.000261083 -0.0589857 0.0589369 0.0589669 -0.0598365 -0.0588554 -0.0591881 -0.058978 -0.0601419 -0.0595703 0.0592293 0.0593855 -0.0599672 0.0588317 0.059091 -0.060555 0.0591342 -0.0591055 -0.0594439 0.0588086 -0.0587717 -0.0587627 -0.0589324 -0.0589436
internal_weight=1642.64 824.618 818.024 811.406 109.506 715.112 143.82 92.7953 77.2416 51.0247 275.862 104.428 54.2916 535.544 43.9239 22.95 171.434 32.264 10.9157 491.621 571.292 543.058 21.3483 28.2339
internal_count=12802 12163 639 633 1523 10640 2091 1369 1051 722 211 79 747 422 34 304 132 472 156 388 8549 8132 316 417
is_linear=0
shrinkage=0.05


Tree=25
num_leaves=31
num_cat=0
split_feature=43 5 5 18 18 18 7 14 3 43 0 43 43 43 18 7 43 43 0 5 32 7 54 6 14 19 18 0 43 18
split_gain=834.791 266.538 94.9244 86.2725 59.0406 54.9474 25.1937 21.5676 18.2061 17.8893 18.3539 16.6405 14.977 10.4489 9.9073 8.07863 17.0223 8.02956 7.74925 6.28622 5.79002 4.66346 4.20292 4.02428 8.81052 1.86969 0.99047 0.227377 0.000959023 3.91999e-05
threshold=42.527500152587898 32.490194320678718 40.090698242187507 33.712663650512702 34.304010391235359 27.860905647277836 67.67105865478517 38.341802597045906 79.690479278564467 38.125867843627937 12.390970706939699 49.048204421997077 49.191867828369148 33.646337509155281 42.260213851928718 15.280023097991945 40.386631011962898 45.263717651367195 22.122523307800297 17.445124626159672 17.500000000000004 43.838872909545906 1211.0791625976565 3.4725035429000859 32.012863159179695 72.75016021728517 52.685716629028327 13.703256130218508 37.011411666870124 49.056661605834968
decision_type=2 2 2 2 2 2 2 2 2 2 2 2 2 2 2 2 2 2 2 2 2 2 2 2 2 2 2 2 2 2
left_child=2 3 15 20 9 6 12 -8 13 22 -11 18 -3 -6 17 16 29 -7 -5 -13 21 -2 -4 24 -17 -25 -16 -18 -10 -1
right_child=1 5 4 11 8 14 7 -9 28 10 -12 19 -14 -15 26 23 27 -19 -20 -21 -22 -23 -24 25 -26 -27 -28 -29 -30 -31
leaf_value=-0.058245161239970845 -0.032497053493110516 0.014489376995871854 -0.058312774415067214 0.01964093186036675 -0.058220441391785949 0.0082482601569701681 -0.058956756425955298 0.018126383344456487 -0.058221809081181658 0.018965435228792314 -0.041757447521542368 -0.059111460240783648 0.044661400785631807 0.04074766911491453 0.05172167950762218 -0.058260281212115621 0.059340839800856894 0.044007332481151337 -0.058293715601280841 0.04491327191346238 0.058676860741238804 -0.0549392756411759 0.010292137316373169 -0.058262452679725407 0.046633135733079395 -0.025647224960099763 0.056805590904492824 0.039261869337513092 -0.059574656812942842 -0.058610879237390015
leaf_weight=10.107831254601479 30.889158762991428 89.653952419757843 50.327303424477577 5.7739954069256765 2.80884114652872 17.464668110013008 16.896860130131245 19.601629860699177 2.1068827733397475 23.263514459133148 26.756734512746334 1.504647985100745 75.991627618670464 52.80437083542347 161.52336025238037 6.2132340744137746 2.6172956228256217 155.23765618354082 7.1262150406837463 41.74365609139204 1.2538127899169911 92.369019128382206 2.3360674306750289 436.95969419926405 2.9535518959164619 4.4387317970395079 235.46705857664347 3.0565156564116478 3.4635146632790565 0.78997565060854036
leaf_count=158 381 540 783 33 44 115 250 106 33 128 343 22 177 152 248 97 2 373 111 97 1 1397 16 6821 7 51 231 10 49 12
internal_value=9.65988e-05 0.029645 -0.0445065 -0.025025 -0.0117635 0.0424414 0.0200453 -0.017559 0.027117 -0.0349303 -0.0135163 0.026428 0.0283311 0.0357491 0.0503881 -0.0559925 -0.0217068 0.0403912 -0.023411 0.0412942 -0.0482277 -0.0493151 -0.0552696 -0.0572535 -0.0244635 -0.0579345 0.0547371 0.0485242 -0.059063 -0.0582717
internal_weight=1583.5 952.497 631.004 180.661 163.867 771.837 202.144 36.4985 61.1836 102.684 50.0202 56.1485 165.646 55.6132 569.693 467.137 16.5716 172.702 12.9002 43.2483 124.512 123.258 52.6634 450.565 9.16679 441.398 396.99 5.67381 5.5704 10.8978
internal_count=12788 4082 8706 2042 1548 2040 1073 356 278 1270 471 263 717 196 967 7158 182 488 144 119 1779 1778 799 6976 104 6872 479 12 82 170
is_linear=0
shrinkage=0.05


Tree=26
num_leaves=24
num_cat=0
split_feature=49 49 37 18 5 5 43 5 43 43 43 43 43 37 43 18 18 43 18 18 43 43 2
split_gain=2073.16 0.0717378 0.0521729 0.0224434 0.0150916 0.0135926 0.0261539 0.0101168 0.00969753 0.00865678 0.00457808 0.00392549 0.00344603 0.00232781 0.00225708 0.00319714 0.0019351 0.00170231 0.00379388 0.00124514 0.000466545 0.00038734 0.000258995
threshold=63.990901947021491 47.335252761840827 1.5000000000000002 36.809387207031257 36.304346084594734 36.531240463256843 39.999254226684577 24.396880149841312 46.016479492187507 45.770221710205085 46.016479492187507 40.652021408081062 36.671506881713874 8.5000000000000018 49.579776763916023 33.371763229370124 46.552364349365241 49.371103286743171 33.050704956054695 26.878493309021 42.527500152587898 36.671506881713874 63.375226974487312
decision_type=2 2 2 2 2 2 2 2 2 2 2 2 2 2 2 2 2 2 2 2 2 2 2
left_child=1 5 -2 7 14 17 21 -4 12 -9 -8 13 -6 -5 22 -16 -13 20 -19 -10 -1 -7 -3
right_child=2 4 3 11 8 6 10 9 19 -11 -12 16 -14 -15 15 -17 -18 18 -20 -21 -22 -23 -24
leaf_value=-0.057788340474263657 0.052976475521758881 -0.057982609366516794 0.060381715405423801 0.058154465435522953 -0.057950406339904496 -0.057790564061844053 -0.058927959780970075 0.05893852812128654 -0.059998011406920272 0.058282983855727048 -0.059909806163933467 0.058057549433782121 -0.059380394021223172 0.059122598160353618 -0.058290039447123791 -0.059971198105209289 0.057839868698827082 -0.058003348515277123 -0.05978894534921636 -0.060616196903226532 -0.05791657259546782 -0.058032505989233985 -0.058582162654320008
leaf_weight=404.04590244591236 4.9294172525405875 16.220462732017047 7.035659432411193 15.593188643455507 4.7296208366751662 61.505677495151758 32.091606520116329 68.960902690887451 14.00950815528631 186.71519362926483 18.843510314822197 148.56785440444946 38.572228461503983 10.317007064819334 7.3993673361837846 4.577576145529747 326.38024365901947 30.169654008001089 3.3001962825655928 19.460322462022305 86.035440675914288 22.629294987767935 2.0262729600071898
leaf_count=6582 5 260 5 13 76 1002 476 54 192 154 260 125 554 8 116 63 280 483 46 256 1386 361 31
internal_value=8.87318e-05 -0.0581449 0.0581039 0.058137 -0.0593457 -0.0579498 -0.058397 0.0585113 -0.0597183 0.0584598 -0.0592912 0.0579407 -0.0592242 0.05854 -0.0583993 -0.0589326 0.057908 -0.0578344 -0.0581794 -0.0603574 -0.0578109 -0.0578556 -0.0580492
internal_weight=1534.12 765.617 768.499 763.57 106.995 658.621 135.07 262.712 76.7717 255.676 50.9351 500.858 43.3018 25.9102 30.2237 11.9769 474.948 523.551 33.4699 33.4698 490.081 84.135 18.2467
internal_count=12788 12144 644 639 1548 10596 2099 213 1078 208 736 426 630 21 470 179 405 8497 529 448 7968 1363 291
is_linear=0
shrinkage=0.05


Tree=27
num_leaves=24
num_cat=0
split_feature=1 1 37 18 5 5 43 5 43 43 43 43 18 55 43 18 18 43 18 18 43 43 2
split_gain=1956.04 0.0602107 0.0537313 0.0188485 0.0126314 0.0114238 0.0219496 0.00847892 0.00808939 0.00726685 0.00382808 0.00330248 0.00289579 0.00240478 0.00189593 0.00267558 0.00165596 0.00143338 0.0031819 0.00103862 0.000392757 0.000325965 0.00021809
threshold=63.990901947021491 47.335252761840827 1.5000000000000002 36.809387207031257 36.304346084594734 36.531240463256843 39.999254226684577 24.396880149841312 46.016479492187507 45.770221710205085 46.016479492187507 40.573314666748054 37.603101730346687 285.96542358398443 49.579776763916023 33.371763229370124 46.552364349365241 49.371103286743171 33.050704956054695 36.439983367919929 42.527500152587898 36.671506881713874 63.375226974487312
decision_type=2 2 2 2 2 2 2 2 2 2 2 2 2 2 2 2 2 2 2 2 2 2 2
left_child=1 5 -2 7 14 17 21 -4 12 -9 -8 13 -6 -5 22 -16 -13 20 -19 -10 -1 -7 -3
right_child=2 4 3 11 8 6 10 9 19 -11 -12 16 -14 -15 15 -17 -18 18 -20 -21 -22 -23 -24
leaf_value=-0.057351033549937258 0.052339442214892055 -0.057533208807365156 0.059774794972403428 0.057683565957407125 -0.058435993928566667 -0.057353151665384829 -0.058417741104853385 0.058427376925593383 -0.059540977837760439 0.057814113844452508 -0.05933413329543185 0.057604421496481185 -0.059368055321838233 0.058727191092430811 -0.057821777632161654 -0.059391677986376207 0.057399307290197536 -0.057552731915410521 -0.059221750657200284 -0.060135500775375744 -0.057471215782675437 -0.057579858211188273 -0.058095037231817227
leaf_weight=387.19665591046214 4.7446352913975707 15.546845059841877 6.758751153945922 14.933816909790041 30.016032002866268 58.940897408872843 30.786328323185444 66.156948924064636 20.792930670082569 179.01283478736877 18.093989960849285 143.56570446491241 11.536067649722098 8.7563377618789655 7.0940497666597349 4.3957332037389278 312.78495132923126 28.917256981134415 3.1685459576547137 11.359464079141615 82.457545418292284 21.690575901418924 1.9432018846273411
leaf_count=6582 5 260 5 13 464 1002 476 54 294 154 260 126 166 7 116 63 280 483 46 154 1386 361 31
internal_value=8.802e-05 -0.0576849 0.0576431 0.0576775 -0.0588078 -0.0575023 -0.0579209 0.0580278 -0.0591555 0.0579796 -0.058757 0.0574937 -0.0586948 0.0580693 -0.0579234 -0.0584224 0.0574638 -0.0573942 -0.0577176 -0.059751 -0.0573721 -0.0574141 -0.0575956
internal_weight=1470.65 733.936 736.714 731.969 102.684 631.252 129.512 251.929 73.7045 245.17 48.8803 480.041 41.5521 23.6902 28.9798 11.4898 456.351 501.74 32.0858 32.1524 469.654 80.6315 17.49
internal_count=12788 12144 644 639 1548 10596 2099 213 1078 208 736 426 630 20 470 179 406 8497 529 448 7968 1363 291
is_linear=0
shrinkage=0.05


Tree=28
num_leaves=28
num_cat=0
split_feature=1 1 53 1 38 5 5 5 48 8 4 53 8 48 53 48 8 48 1 5 48 53 5 53 19 53 7
split_gain=1846.38 0.0506094 0.0180632 0.0114161 0.0499194 0.0105893 0.00961415 0.00794093 0.00531364 0.00433734 0.00391593 0.00334802 0.0023767 0.00183738 0.00159209 0.00146853 0.00120895 0.000848814 0.000745232 0.000718239 0.000634004 0.000604883 0.000563756 0.00056192 0.000372749 0.0001983 9.18991e-05
threshold=63.990901947021491 47.335252761840827 742.74615478515636 64.997192382812514 11.35820531845093 36.304346084594734 36.531240463256843 24.590470314025882 32.668205261230476 70.815628051757827 14.713415622711183 742.74615478515636 17.004934310913089 28.250531196594242 981.79913330078136 10.824715614318849 68.356887817382827 6.7072000503540048 34.764835357666023 35.880599975585945 39.161350250244148 695.25277709960949 32.600963592529304 627.26235961914074 22.482604026794437 1011.8265075683595 47.51361274719239
decision_type=2 2 2 2 2 2 2 2 2 2 2 2 2 2 2 2 2 2 2 2 2 2 2 2 2 2 2
left_child=1 6 7 4 -4 16 20 -2 9 -8 12 13 -9 -7 15 -5 22 -13 -10 -16 25 -18 -3 -22 -12 -1 -6
right_child=2 5 3 14 26 11 8 10 18 -11 24 17 -14 -15 19 -17 21 -19 -20 -21 23 -23 -24 -25 -26 -27 -28
leaf_value=-0.056956352444114233 0.059299007689655903 -0.057228318648566714 0.05117397689242096 0.057641870613389545 0.05735008898144054 -0.058201291758932107 -0.057225483399319259 0.058672364401525567 -0.057930061992342657 -0.058251307930480882 0.057326965973278778 -0.058177725938659247 0.057733471619295033 -0.058898671340666224 0.057248923853349412 0.057164377083231736 -0.057781925296023544 -0.059222334843484839 -0.05856291894648398 0.056998050839294982 -0.057093370764693965 -0.059100409749523311 -0.05782439691430289 -0.057623433102307844 0.057503300323828749 -0.057121075428893379 0.05710320582121578
leaf_weight=417.3520452529192 6.555037021636962 19.207425132393844 4.409258674830201 18.221403956413269 6.6694762706756583 34.704597324132919 93.933974884450436 7.5113576650619498 9.0821999721229094 11.573889497667549 99.782611846923828 2.1442086733877685 65.667107820510864 12.976544942706822 31.828032255172729 138.4584835767746 2.0652653090655799 20.896730158478022 9.5360340327024442 275.32947134971619 38.429455492645502 1.5029025003314016 4.9990402683615676 5.747702080756425 42.835370659828186 19.107161112129688 8.6685307025909406
leaf_count=7396 5 332 5 16 6 548 1624 6 147 182 90 34 57 193 29 127 34 303 146 257 672 22 82 96 38 333 8
internal_value=8.73524e-05 -0.0572543 0.0572116 0.0570401 0.0558627 -0.0583053 -0.0570831 0.0575846 -0.0574754 -0.057338 0.0575325 -0.0586302 0.0578298 -0.0583911 0.0570902 0.0572199 -0.0574781 -0.0591251 -0.0582542 0.057024 -0.0569818 -0.0583373 -0.0573514 -0.0571623 0.0573799 -0.0569636 0.0572106
internal_weight=1409.2 703.259 705.936 483.585 19.7473 98.4967 604.762 222.351 124.126 105.508 215.796 70.7221 73.1785 47.6811 463.837 156.68 27.7746 23.0409 18.6182 307.158 480.636 3.56817 24.2065 44.1772 142.618 436.459 15.338
internal_count=12788 12144 644 448 19 1548 10596 196 2099 1806 191 1078 63 741 429 143 470 337 293 286 8497 56 414 768 128 7729 14
is_linear=0
shrinkage=0.05


Tree=29
num_leaves=24
num_cat=0
split_feature=49 37 49 53 43 13 13 13 43 43 43 43 55 43 44 53 53 53 43 13 8 15 53
split_gain=1743.62 0.0583376 0.042607 0.0123203 0.00725195 0.0105897 0.00603415 0.00524983 0.00567185 0.00523888 0.00229732 0.00184575 0.00150501 0.00129912 0.0012157 0.00100582 0.000876302 0.000854889 0.00075093 0.00240658 0.000652331 0.000589769 9.01369e-05
threshold=63.990901947021491 1.5000000000000002 47.335252761840827 742.74615478515636 42.527500152587898 36.478002548217781 31.666013717651371 20.606462478637699 45.770221710205085 46.016479492187507 40.652021408081062 36.671506881713874 285.96542358398443 46.016479492187507 30.234032630920414 994.58822631835949 688.08523559570324 553.76464843750011 39.999254226684577 36.478002548217781 69.559597015380874 33.99406814575196 925.38055419921886
decision_type=2 2 2 2 2 2 2 2 2 2 2 2 2 2 2 2 2 2 2 2 2 2 2
left_child=2 -2 4 7 18 16 14 -3 -9 11 12 -8 -5 -7 20 -12 -6 -11 22 -20 -4 -16 -1
right_child=1 3 6 10 5 13 9 8 -10 17 15 -13 -14 -15 21 -17 -18 -19 19 -21 -22 -23 -24
leaf_value=-0.056560777307733935 0.051051928322353703 0.058474602292086786 -0.056951864469571227 0.056870949555077779 -0.056749392210221572 -0.057559029709963697 -0.05667581742822856 0.057569609500143698 0.056961053873403604 -0.058275459427373055 0.056772553056939984 -0.057822862527461855 0.057677024790995506 -0.058268067566257353 -0.058046096525727599 0.05661462185227089 -0.057219863873566895 -0.05882331624666659 -0.056603868999988663 -0.057435507190208804 -0.057829639352503008 -0.056930325622682 -0.056658656857269243
leaf_weight=361.08037920668721 4.3749624341726294 7.3300639390945426 19.398561414331205 15.851364850997927 99.73483594506979 12.688571177423002 3.9333335421979418 51.000646829605103 153.60606968402863 12.13916112855077 158.80619955062866 32.367219749838114 9.1235635280609113 13.161193955689667 5.4863965362310401 276.07609355449677 10.987960629165171 17.223602000623941 45.589654307812452 10.7503131814301 2.37584663927555 1.5103632770478723 25.16012728959322
leaf_count=6690 5 6 346 15 1813 212 72 45 144 190 152 529 8 206 88 269 191 257 841 182 39 27 461
internal_value=8.67221e-05 0.056807 -0.0568509 0.0568444 -0.0566903 -0.0570088 -0.0578357 0.0571598 0.0571127 -0.0581002 0.0566991 -0.0576986 0.0571654 -0.05792 -0.0572319 0.0566723 -0.0567961 -0.0585968 -0.056592 -0.0567626 -0.0570476 -0.0578052 -0.0565672
internal_weight=1349.76 676.169 673.588 671.794 579.153 136.573 94.4345 211.937 204.607 65.6633 459.857 36.3006 24.9749 25.8498 28.7712 434.882 110.723 29.3628 442.58 56.34 21.7744 6.99676 386.241
internal_count=12788 644 12144 639 10596 2422 1548 195 189 1048 444 601 23 418 500 421 2004 447 8174 1023 385 115 7151
is_linear=0
shrinkage=0.05


Tree=30
num_leaves=28
num_cat=0
split_feature=1 1 18 5 5 43 5 43 43 43 43 18 37 43 18 48 43 18 43 18 7 5 43 21 43 51 16
split_gain=1667.61 0.0358033 0.0102589 0.00737953 0.00642427 0.012647 0.00550666 0.00515897 0.00343175 0.00216526 0.0021508 0.00177136 0.00151514 0.00136024 0.00146562 0.00122972 0.00103514 0.000987977 0.000971344 0.00200129 0.000815255 0.000628499 0.00024829 0.000196621 0.000193853 0.000150293 1.17073e-05
threshold=63.990901947021491 47.335252761840827 36.809387207031257 36.304346084594734 36.531240463256843 39.999254226684577 28.639963150024418 42.199106216430671 45.770221710205085 40.573314666748054 46.016479492187507 36.439983367919929 8.5000000000000018 49.371103286743171 32.649026870727546 21.726806640625004 36.671506881713874 47.283535003662116 49.371103286743171 33.050704956054695 75.540420532226577 36.531240463256843 42.728391647338874 0.37977127730846411 36.671506881713874 63.866634368896491 17.276824951171879
decision_type=2 2 2 2 2 2 2 2 2 2 2 2 2 2 2 2 2 2 2 2 2 2 2 2 2 2 2
left_child=1 4 6 13 18 24 -2 16 15 12 -7 -9 26 25 -15 -8 -5 21 22 -20 -10 -11 -1 -19 -6 -3 -4
right_child=2 3 9 7 5 10 8 11 20 17 -12 -13 -14 14 -16 -17 -18 23 19 -21 -22 -23 -24 -25 -26 -27 -28
leaf_value=-0.056196350118964136 0.05822648097843669 -0.056335471686101604 0.056517878322523432 -0.056289019292691082 -0.056197928712600591 -0.057071308277148097 0.056948595026527021 -0.057770764505938738 0.056538223305338753 0.056650452587491379 -0.057814124073076525 -0.058455502279911226 0.057371611653055966 -0.056621885757732943 -0.057832906586033961 0.05766575064473705 -0.057202908413772027 0.056541502727608883 -0.056373915519053547 -0.057754928750548412 0.056870466580943302 0.056353090711733216 -0.056300076723046259 0.056227307024488485 -0.056384704120026254 -0.056983083930397777 0.056418104876453101
leaf_weight=344.26415394991636 5.9880197048187247 14.367143958806992 7.1059536933898944 3.7568508014082935 51.690983314067125 26.530216582119465 45.766476988792419 29.322677470743656 147.50185120105743 20.573758363723755 15.402476932853459 13.932618439197539 7.7532416582107535 6.0954489409923536 4.2336588129401207 6.8754957914352408 17.68204740434885 5.0766707658767691 25.636995695531372 2.9223741777241221 21.105742573738098 130.36540448665619 69.307167530059814 259.67410862445831 18.998132031410933 0.95545551180839616 5.0151877999305725
leaf_count=6666 5 274 7 72 1001 466 43 480 145 20 251 214 7 113 69 6 307 5 487 48 20 131 1326 265 360 17 5
internal_value=0.000758577 -0.0564694 0.056458 -0.0573924 -0.0563191 -0.0566562 0.0567303 -0.057677 0.0566898 0.0563159 -0.0573442 -0.0579913 0.0568258 -0.0566748 -0.0571183 0.0570423 -0.0570428 0.0562915 -0.0562332 -0.0565152 0.0565798 0.0563936 -0.0562137 0.0562333 -0.0562481 -0.0563759 0.0564766
internal_weight=1307.9 645.098 662.802 90.3459 554.753 112.622 227.238 64.6942 221.25 435.564 41.9327 43.2553 19.8744 25.6517 10.3291 52.642 21.4389 415.69 442.131 28.5594 168.608 150.939 413.571 264.751 70.6891 15.3226 12.1211
internal_count=12810 12151 659 1546 10605 2078 219 1073 214 440 717 694 19 473 182 49 379 421 8527 535 165 151 7992 270 1361 291 12
is_linear=0
shrinkage=0.05


Tree=31
num_leaves=28
num_cat=0
split_feature=1 1 53 43 13 13 43 13 14 43 14 43 37 53 43 20 53 43 43 2 43 43 13 43 17 17 23
split_gain=1576.06 0.0302066 0.00813021 0.00506808 0.0070528 0.0044542 0.00421549 0.00398015 0.00293426 0.00260725 0.00183937 0.00175138 0.00159426 0.00123458 0.000884574 0.000821063 0.00080746 0.000794663 0.000652774 0.000603184 0.00051601 0.000486328 0.00152034 0.000303942 0.000200375 6.51851e-05 9.26212e-06
threshold=63.990901947021491 47.335252761840827 736.66430664062511 42.527500152587898 36.478002548217781 31.666013717651371 42.199106216430671 23.328560829162601 36.37793159484864 45.770221710205085 36.37793159484864 40.573314666748054 8.5000000000000018 762.63146972656261 46.016479492187507 28.574603080749515 981.79913330078136 36.842466354370124 49.371103286743171 68.842170715332045 42.728391647338874 39.999254226684577 36.273084640502937 43.823724746704109 0.23732812702655795 0.071106284856796279 15.929505825042726
decision_type=2 2 2 2 2 2 2 2 2 2 2 2 2 2 2 2 2 2 2 2 2 2 2 2 2 2 2
left_child=1 3 7 21 8 10 17 -2 -5 15 18 12 26 -8 -6 -9 23 -7 -3 -11 -12 25 -23 -13 -18 -1 -4
right_child=2 5 11 4 14 6 13 9 -10 19 20 16 -14 -15 -16 -17 24 -19 -20 -21 -22 22 -24 -25 -26 -27 -28
leaf_value=-0.056175994211536906 0.057344417140331866 -0.055988814157355293 0.056156802736059802 -0.056009784797640474 -0.05673700238012102 -0.0559530704641511 -0.057319865879697077 0.056577872561955581 -0.05721616517560868 0.056162196203353887 -0.056534517202875292 0.056289597534533733 0.057089399596807727 -0.057911614221579713 -0.057356289108567576 0.057234169483605019 0.056228392395379315 -0.056769835629935629 -0.056568001093279502 0.05640223594515209 -0.05755407137077221 -0.055901194718240302 -0.056598119591717448 0.056034402896736418 0.055904727667148969 -0.055864991027480229 0.056068469422384873
leaf_weight=1.692933041602372 9.9091561436653119 12.497331168502575 7.7701843976974505 96.529605537652969 11.749395396560432 3.6488414853811291 27.563289556652308 36.757805585861206 5.3181610330939284 113.68127447366714 1.8220791555941094 12.827800989150999 6.4622607231140128 12.957946863025425 11.323317784816025 5.4754634499549857 4.8684304356575003 16.198673438280821 7.9655171930789939 33.998097121715546 3.8915451094508171 42.164209622889757 9.6087591759860498 129.02466624975204 268.78260046243668 352.48968727141619 4.8012586236000061
leaf_count=33 9 249 8 1919 214 73 472 36 92 117 34 13 6 209 193 5 5 295 149 34 65 849 178 135 286 7127 5
internal_value=0.00075382 -0.0561143 0.0561035 -0.0559731 -0.0562516 -0.0569805 -0.0572167 0.0563675 -0.0560728 0.0563165 -0.0564357 0.0559822 0.0564512 -0.0575091 -0.0570409 0.056663 0.0559607 -0.0566197 -0.0562143 0.0562175 -0.0572289 -0.0558874 -0.0560305 0.0560575 0.0559105 -0.0558665 0.0561231
internal_weight=1251.78 617.421 634.359 530.876 124.92 86.5452 60.3688 199.822 101.848 189.913 26.1765 434.537 19.0337 40.5212 23.0727 42.2333 415.503 19.8475 20.4628 147.679 5.71362 405.956 51.773 141.852 273.651 354.183 12.5714
internal_count=12810 12151 659 10605 2418 1546 1049 201 2011 192 497 458 19 681 407 41 439 368 398 151 99 8187 1027 148 291 7160 13
is_linear=0
shrinkage=0.05


Tree=32
num_leaves=29
num_cat=0
split_feature=1 1 18 43 13 13 43 13 18 43 43 18 37 43 18 18 44 43 0 7 18 43 13 43 13 21 18 23
split_gain=1490.07 0.0255165 0.00732743 0.00428765 0.00595329 0.00375381 0.00354862 0.00270566 0.00257238 0.00223174 0.00154518 0.00127928 0.00107936 0.000745184 0.000714948 0.000708105 0.000679138 0.000671622 0.000670934 0.000517584 0.000495296 0.000411681 0.00128539 0.000329909 0.000268061 0.000142601 6.46255e-05 8.95935e-06
threshold=63.990901947021491 47.335252761840827 36.809387207031257 42.527500152587898 36.478002548217781 31.666013717651371 42.199106216430671 23.328560829162601 21.872847557067875 45.770221710205085 40.573314666748054 34.927961349487312 8.5000000000000018 46.016479492187507 33.050704956054695 47.283535003662116 30.234032630920414 36.842466354370124 21.726806640625004 75.540420532226577 34.304010391235359 39.999254226684577 36.273084640502937 45.897336959838874 35.482612609863288 0.37977127730846411 67.491306304931655 15.772772789001467
decision_type=2 2 2 2 2 2 2 2 2 2 2 2 2 2 2 2 2 2 2 2 2 2 2 2 2 2 2 2
left_child=1 3 7 21 14 16 17 8 -2 18 12 -8 27 -6 -5 24 20 -7 -9 -11 -3 26 -23 -18 -12 -17 -1 -4
right_child=2 5 10 4 13 6 11 9 -10 19 15 -13 -14 -15 -16 25 23 -19 -20 -21 -22 22 -24 -25 -26 -27 -28 -29
leaf_value=-0.055546090415979778 0.057518401773443154 -0.055752757145184996 0.055824605489952953 -0.05569782180514582 -0.0563657510185126 -0.055629227905845235 -0.0568689490172547 0.05620319240710786 0.055936427634668752 0.05584126030563831 0.055823118870933358 -0.057462828007053462 0.056575903703385756 -0.056946594564658774 -0.056158417383769893 0.055846222746213925 -0.056084020437254557 -0.056396883562743576 0.056803261518318875 0.056124622332824163 -0.056295874877842003 -0.05558043298110768 -0.056235457068502706 -0.056832081467688367 0.055669467894677964 0.055566651694098947 -0.055836874669409925 0.05573339105481339
leaf_weight=336.87153619527817 5.6474816799163801 12.572416312992578 6.5088351964950579 88.12545332685113 11.248117782175543 3.4905791431665447 24.384198900312185 41.946490526199341 4.7150554656982422 132.29200756549835 39.912778437137604 14.436706259846686 7.1111943125724784 10.846599001437424 9.315715551376341 4.6504492163658133 2.428323119878768 15.507969558238981 5.2401061058044425 18.350676357746124 6.3018584363162509 40.333440564572811 9.1975853964686376 3.7498575001955032 98.288598477840424 237.67744714021683 1.9216429106891144 4.5909131765365601
leaf_count=7121 5 259 7 1828 214 73 438 43 5 142 43 243 7 193 183 5 48 295 5 19 122 849 178 68 108 265 39 5
internal_value=0.000749351 -0.0557808 0.0557706 -0.055648 -0.0559099 -0.0565943 -0.0568158 0.056011 0.0567986 0.0559698 0.0556451 -0.0570898 0.056095 -0.0566509 -0.0557419 0.0556235 -0.056083 -0.0562558 0.0562698 0.0558758 -0.0559341 -0.0555674 -0.0557021 -0.0565381 0.0557138 0.055572 -0.0555477 0.0557869
internal_weight=1197.66 590.732 606.932 507.86 119.536 82.8719 57.8195 208.192 10.3625 197.829 398.74 38.8209 18.2109 22.0947 97.4412 380.529 25.0525 18.9985 47.1866 150.643 18.8743 388.324 49.531 6.17818 138.201 242.328 338.793 11.0997
internal_count=12810 12151 659 10605 2418 1546 1049 219 10 209 440 681 19 407 2011 421 497 368 48 161 381 8187 1027 116 151 270 7160 12
is_linear=0
shrinkage=0.05


Tree=33
num_leaves=29
num_cat=0
split_feature=1 1 53 5 5 5 2 0 53 11 0 53 0 20 53 2 8 0 54 0 53 53 25 0 0 0 53 5
split_gain=1409.23 0.0215783 0.00581544 0.00443907 0.00390433 0.00329948 0.00226169 0.00239954 0.00128074 0.00109385 0.000853711 0.000846352 0.000661391 0.000661397 0.000493712 0.000488693 0.000448236 0.000425295 0.00028617 0.00027654 0.000304396 0.000272744 0.000208635 0.000208012 0.000202026 0.000480562 8.63587e-05 3.56236e-05
threshold=63.990901947021491 47.335252761840827 736.66430664062511 36.304346084594734 36.531240463256843 28.639963150024418 70.395462036132827 31.437409400939945 742.74615478515636 11.923273086547853 28.250531196594242 981.79913330078136 10.824715614318849 22.469841003417972 701.48251342773449 36.257303237915046 61.884099960327156 9.9748272895813006 585.41229248046886 37.228971481323249 762.63146972656261 695.25277709960949 20.500000000000004 41.209329605102546 15.117529392242433 13.066738605499269 1011.8265075683595 36.531240463256843
decision_type=2 2 2 2 2 2 2 2 2 2 2 2 2 2 2 2 2 2 2 2 2 2 2 2 2 2 2 2
left_child=1 4 5 16 19 -2 7 -6 10 15 -5 12 13 -4 -8 -7 23 -10 -11 26 -21 -18 -14 -3 25 -13 -1 -26
right_child=2 3 11 8 6 9 14 -9 17 18 -12 24 22 -15 -16 -17 21 -19 -20 20 -22 -23 -24 -25 27 -27 -28 -29
leaf_value=-0.055250386553048272 0.056923570436557602 -0.055431581381172657 0.055518921531317711 -0.056162349885520102 -0.055385756245912778 0.056272042307307348 -0.05601100196584579 -0.056134123655540047 -0.05627647400615985 0.05553098214333943 -0.056689657740231318 0.055321267477056173 0.055328423141077054 0.056172736978757611 -0.05675505745260398 0.055789524637977719 -0.055766446190867881 -0.056924912443416409 0.055711973319895525 -0.055354238866012942 -0.055888874732975005 -0.056552560710669622 0.055461094654817557 -0.055840868042079522 0.055340309686881653 0.055762140855512045 -0.055374826230079721 0.055268648276247424
leaf_weight=328.45227047801018 5.2721564769744864 13.849630292505031 11.569961726665499 28.300433471798897 66.811289139091969 5.8908183574676505 16.556757740676407 12.75630448758602 3.0423853695392635 95.4165398478508 10.532427012920378 39.775161385536194 49.354832649230957 5.8106614947319022 2.5764087662100783 48.047747254371643 2.8046123124659053 14.97565248981118 28.322622239589691 41.13201142475009 2.8465877622365943 1.8189939036965368 74.156181633472443 4.0012412779033175 19.079252243041992 7.3182939291000357 14.560160819441078 190.49311536550522
leaf_count=7257 5 299 13 554 1450 6 330 251 59 107 193 46 57 6 47 52 58 267 31 896 58 34 84 82 22 8 316 222
internal_value=0.00074515 -0.0554673 0.0554576 -0.0562319 -0.0553424 0.0556909 -0.0556231 -0.0555057 -0.056467 0.0556543 -0.0563054 0.0553503 0.0554487 0.0557375 -0.0561112 0.0558422 -0.055637 -0.0568154 0.0555724 -0.0552708 -0.0553888 -0.0560757 0.0554081 -0.0555233 0.0552962 0.0553898 -0.0552557 0.0552752
internal_weight=1145.52 565.017 580.507 79.3254 485.692 182.95 98.7008 79.5676 56.8509 177.678 38.8329 397.557 140.892 17.3806 19.1332 53.9386 22.4745 18.018 123.739 386.991 43.9786 4.62361 123.511 17.8509 256.666 47.0935 343.012 209.572
internal_count=12810 12151 659 1546 10605 201 2078 1701 1073 196 747 458 160 19 377 58 473 326 138 8527 954 92 141 381 298 54 7573 244
is_linear=0
shrinkage=0.05


Tree=34
num_leaves=31
num_cat=0
split_feature=5 43 43 53 53 18 43 2 50 43 5 3 3 2 43 0 54 34 54 43 0 25 53 43 0 18 5 18 9 43
split_gain=523.605 148.761 101.311 32.5094 30.8061 29.6624 18.3067 12.5802 11.9924 10.6917 12.2291 10.5156 9.76667 8.65294 8.18138 7.15664 6.88845 4.83831 3.99166 3.74818 3.34091 3.18456 1.71297 1.37301 1.82517 1.27679 2.84972 0.322061 0.248954 0.000194717
threshold=36.738483428955085 41.221094131469734 50.939704895019538 695.25277709960949 788.21069335937511 33.050704956054695 46.154329299926765 58.361518859863288 45.47383117675782 45.897336959838874 33.217388153076179 62.161968231201179 79.690479278564467 72.065608978271499 35.586936950683601 30.961586952209476 889.94073486328136 6.5000000000000009 124.28941726684572 38.125867843627937 44.595893859863288 28.500000000000004 935.76602172851574 48.141376495361335 32.17384338378907 44.523130416870124 24.590470314025882 50.386692047119148 93.822807312011733 39.999254226684577
decision_type=2 2 2 2 2 2 2 2 2 2 2 2 2 2 2 2 2 2 2 2 2 2 2 2 2 2 2 2 2 2
left_child=2 3 9 16 6 8 7 -3 20 21 11 -11 14 -8 -5 -12 19 -18 -10 -2 -4 22 -1 24 -6 26 -7 -25 -27 -14
right_child=1 4 5 12 23 25 13 -9 18 10 15 -13 29 -15 -16 -17 17 -19 -20 -21 -22 -23 -24 27 -26 28 -28 -29 -30 -31
leaf_value=-0.054583080132545848 -0.05498839966994843 0.016233801341978476 0.046327680496627936 -0.032384924882151445 0.046581066333522915 -0.016403131504766796 0.041335372741452721 -0.036578917921436138 0.0028228848031103676 0.024958537736716278 0.035768692811460799 -0.052330010186751187 -0.055108349425662298 0.013565805205626663 0.038265914926566329 -0.055676902314997015 0.03423548981367882 -0.055159187762652599 -0.055109042192839588 -0.030147166084865163 -0.055513120239299441 0.03417375744077681 -0.040078429691648494 0.050334155001522135 0.0066231455424257436 0.052253684870082188 0.041639896143666623 0.054125141997657659 0.036990049960615314 -0.05595756992934308
leaf_weight=313.18644589558244 45.020395409315825 40.6307134591043 5.9091497659683254 4.8883206807076958 82.706136364489794 2.5303441770374766 119.88227378204465 15.60717213526368 3.6489548198878792 5.0468077249824992 9.3851605355739576 34.387847475707531 3.2621570490300646 36.621427703648806 25.33257258310914 2.7713461630046359 4.7303960621356955 2.2257891520857811 16.06133820861578 22.91345140337944 0.93237005919218052 1.0356227159500111 21.770061291754246 93.62673607468605 2.9601254872977725 21.997651338577274 12.872691843658684 139.49312686175108 3.0406972020864478 0.85110897570848454
leaf_count=7219 1038 330 17 90 208 34 401 267 41 36 45 762 74 296 105 58 25 50 364 390 20 5 433 180 26 36 43 188 12 17
internal_value=0.000741199 0.029859 -0.040302 -0.0232873 0.0407801 0.0164736 0.0260451 0.00157718 -0.0245869 -0.0501156 -0.0289228 -0.0424387 0.0169996 0.0348374 0.0268379 0.0149216 -0.0417572 0.00563164 -0.0443841 -0.0466097 0.0324487 -0.0533697 -0.0536404 0.0506134 0.0452004 0.0434319 0.0321048 0.0526026 0.0504 -0.0552841
internal_weight=1095.33 640.752 454.576 109.224 531.528 66.9932 212.742 56.2379 26.5518 387.583 51.5912 39.4347 34.3342 156.504 30.2209 12.1565 74.89 6.95619 19.7103 67.9338 6.84152 335.992 334.957 318.786 85.6663 40.4414 15.403 233.12 25.0383 4.11327
internal_count=12810 3685 9125 1789 1896 567 1294 597 442 8558 901 798 286 697 195 103 1503 75 405 1428 37 7657 7652 602 234 125 77 368 48 91
is_linear=0
shrinkage=0.05


Tree=35
num_leaves=25
num_cat=0
split_feature=1 37 1 18 5 5 43 43 43 13 43 43 43 0 37 43 18 5 43 18 18 43 43 43
split_gain=1267 0.0775934 0.0311912 0.0101542 0.00655791 0.00608168 0.010462 0.00485202 0.00415607 0.00338667 0.00211439 0.0020484 0.00153812 0.00136789 0.00111656 0.00101485 0.00136506 0.000817233 0.000666549 0.00157352 0.000503038 0.000221391 0.000170472 0.00010281
threshold=63.990901947021491 1.5000000000000002 47.335252761840827 36.809387207031257 36.304346084594734 36.531240463256843 39.999254226684577 46.016479492187507 45.770221710205085 20.606462478637699 46.016479492187507 40.573314666748054 39.999254226684577 18.475664138793949 8.5000000000000018 49.579776763916023 33.371763229370124 30.896185874938968 49.371103286743171 33.050704956054695 36.439983367919929 36.671506881713874 42.728391647338874 46.016479492187507
decision_type=2 2 2 2 2 2 2 2 2 2 2 2 2 2 2 2 2 2 2 2 2 2 2 2
left_child=2 -2 5 8 15 18 21 12 13 -10 -8 14 -6 -3 -5 23 -17 -13 22 -20 -9 -7 -1 -4
right_child=1 3 4 11 7 6 10 20 9 -11 -12 17 -14 -15 -16 16 -18 -19 19 -21 -22 -23 -24 -25
leaf_value=-0.054699751029595026 0.04741147036624721 0.055507785017982626 -0.054765204354400521 0.055010856189084301 -0.05530336121827744 -0.054717097155421862 -0.055572159417230732 -0.056557977797761838 0.056310758194003642 0.055086755569863671 -0.056376753755107326 0.055104931344000199 -0.056052081272299117 0.056090665347361304 0.055887636120686118 -0.055048439599226742 -0.056369152663876501 0.054774339538208011 -0.054849945301958837 -0.0561770865568611 -0.057024081195709002 -0.054937162216240544 -0.054794979696172974 -0.055065089364099429
leaf_weight=274.34295346215367 3.4064197726547709 33.737716734409332 7.7316094413399714 8.2367561459541303 10.709285441786053 42.187147844582796 21.835066962987185 15.929477840662004 5.9100335836410514 129.09074467420578 13.042640402913092 19.912527501583099 19.081402793526649 14.345175325870512 6.49393206834793 4.697047755122183 3.3531859628856182 305.4811429977417 20.601409219205383 2.5050295740365973 9.0929319784045202 15.675206176936625 56.710118286311626 4.5340262092649937
leaf_count=6636 5 38 185 10 237 1018 462 296 6 155 248 24 379 15 7 108 64 386 487 49 160 365 1351 104
internal_value=0.000213488 0.0549333 -0.054987 0.0549823 -0.0559297 -0.0548286 -0.055189 -0.0562141 0.0552825 0.0551403 -0.055873 0.0548207 -0.0557829 0.0556817 0.0553974 -0.0551624 -0.0555986 0.0547946 -0.0547342 -0.0549938 -0.0567274 -0.0547767 -0.0547161 -0.0548761
internal_weight=1048.64 526.614 522.029 523.208 75.129 446.9 92.7401 54.8131 183.084 135.001 34.8777 340.124 29.7907 48.0829 14.7307 20.3159 8.05023 325.394 354.16 23.1064 25.0224 57.8624 331.053 12.2656
internal_count=12795 646 12149 641 1533 10616 2093 1072 214 161 710 427 616 53 17 461 172 410 8523 536 456 1383 7987 289
is_linear=0
shrinkage=0.05


Tree=36
num_leaves=25
num_cat=0
split_feature=1 37 1 18 18 14 11 2 8 1 14 41 0 14 0 1 0 2 0 2 41 0 18 1
split_gain=1199.19 0.0801995 0.0264338 0.00860916 0.00309502 0.00258351 0.00171224 0.00135212 0.00125626 0.00121867 0.00100795 0.00104529 0.000979447 0.000873061 0.000767162 0.000635576 0.000629299 0.00151359 0.000625733 0.00062175 0.000574491 0.00043729 0.000377354 0.000111325
threshold=63.990901947021491 1.5000000000000002 47.335252761840827 36.809387207031257 33.050704956054695 37.297279357910163 15.358064174652101 77.418758392333999 26.333396911621097 40.384349822998054 31.811689376831058 16.368998527526859 31.952519416809086 27.593265533447269 28.250531196594242 68.051048278808608 15.011778831481935 44.088752746582038 19.844601631164554 63.599126815795906 17.96512603759766 35.856531143188484 43.363037109375007 23.102371215820316
decision_type=2 2 2 2 2 2 2 2 2 2 2 2 2 2 2 2 2 2 2 2 2 2 2 2
left_child=2 -2 5 6 10 9 8 12 -3 21 11 -4 -7 19 -12 -8 17 -5 -15 -6 -11 -1 -18 -9
right_child=1 3 4 16 13 7 15 23 -10 20 14 -13 -14 18 -16 -17 22 -19 -20 -21 -22 -23 -24 -25
leaf_value=-0.054489357400982832 0.046868126592171655 0.055551089147717503 -0.054729239389158246 0.055160410346901681 -0.055318055944579572 -0.054750238653609909 0.055031835120949772 -0.055226546545063981 0.05506618582559264 -0.054688222646335709 -0.055391362471131446 -0.055457394238137919 -0.055661870327451603 -0.055874727827964946 -0.056034108866265767 0.054774387410060001 0.054650249648740226 0.054573460748234354 -0.056446351876131229 -0.056227618004281436 -0.055134738993633275 -0.05466482375264517 0.05449964704759655 -0.055868741762949342
leaf_weight=320.42318397760391 3.2769061811268321 17.762768626213074 10.266446530818941 14.169735372066496 6.055004835128786 23.481364008039243 37.762137234210968 0.80618936941027541 53.852163076400757 24.743153791874647 17.489727631211284 9.4796159677207452 3.3690711073577395 8.3982344195246714 6.3200432807207099 65.653964638710022 51.857269585132599 48.848586440086365 11.13524081930518 2.7241367362439632 10.162114460021256 39.93279618024826 210.14661186933517 4.1417594775557518
leaf_count=8062 5 20 249 17 135 567 46 18 65 604 382 206 71 172 126 83 67 64 210 53 232 978 279 84
internal_value=0.000212429 0.0546647 -0.0547203 0.0547158 -0.0556075 -0.054571 0.0549985 -0.0550046 0.0551865 -0.0545361 -0.0553429 -0.0550788 -0.0548646 -0.0560144 -0.055562 0.0548684 0.0545636 0.0547054 -0.0562006 -0.0556003 -0.0548182 -0.0545088 0.0545295 -0.0557641
internal_weight=1002.26 503.33 498.928 500.053 71.8685 427.06 175.031 31.7984 71.6149 395.261 43.5558 19.7461 26.8504 28.3126 23.8098 103.416 325.022 63.0183 19.5335 8.77914 34.9053 360.356 262.004 4.94795
internal_count=12795 646 12149 641 1533 10616 214 740 85 9876 963 455 638 570 508 129 427 81 382 188 836 9040 346 102
is_linear=0
shrinkage=0.05


Tree=37
num_leaves=31
num_cat=0
split_feature=43 5 53 5 53 53 14 43 48 43 13 18 7 11 43 19 43 7 43 48 6 54 32 6 14 5 34 18 18 43
split_gain=435.201 133.87 48.1997 42.517 28.2519 28.215 9.541 9.22674 7.6698 7.60258 7.5448 6.21931 5.49319 7.60352 4.8357 4.70868 4.53746 4.44935 8.31697 4.34618 4.25198 3.76788 3.40568 2.2384 4.67198 1.40894 1.40246 1.25745 0.513685 0.000177418
threshold=42.626657485961921 33.217388153076179 804.81958007812511 40.090698242187507 527.82476806640636 658.45028686523449 22.201922416687015 38.409152984619148 11.801627159118654 35.586936950683601 20.606462478637699 39.032049179077156 48.903926849365241 10.653402805328371 49.048204421997077 15.156946182250978 51.229013442993171 15.280023097991945 40.386631011962898 22.005478858947757 15.710685253143312 1431.6334228515627 17.500000000000004 3.4725035429000859 32.012863159179695 15.787702083587648 1.5000000000000002 52.685716629028327 36.439983367919929 36.842466354370124
decision_type=2 2 2 2 2 2 2 2 2 2 2 2 2 2 2 2 2 2 2 2 2 2 2 2 2 2 2 2 2 2
left_child=3 2 12 17 6 7 15 29 -9 21 -8 16 13 -2 20 -3 -6 18 -1 -11 -4 -7 -14 24 -19 -16 -25 -13 -20 -5
right_child=1 4 14 5 11 9 10 8 -10 19 -12 27 22 -15 25 -17 -18 23 28 -21 -22 -23 -24 26 -26 -27 -28 -29 -30 -31
leaf_value=-0.054227362537105916 0.040887898511994314 0.0022367510955375036 0.030055165710331695 -0.0542104221150842 0.023601010000135869 -0.054334155306408977 -0.055146507172419978 0.017497369790591893 -0.036682879974932976 0.031644463808298821 0.025123600143024789 0.045915089804816518 -0.051051218422362613 -0.03278000201179173 -0.054495885799375254 -0.054989055859072891 0.044768043339364086 -0.054222711455624996 0.015282953726515681 -0.055369757391968526 -0.054369804756449785 0.055865133140192161 0.054639474175786185 -0.012734828930623054 0.042971375382412746 0.045478150410908767 -0.053910457409538641 0.052908657181396736 0.054895909144494631 -0.054506261636379408
leaf_weight=6.088159676641224 4.0275918319821384 8.9073504433035833 3.4974275380373028 24.539068873971704 45.747936699539423 4.552638165652751 3.0316968820989123 11.152071692049505 15.766787100583313 32.754217211157084 85.081324435770512 114.19095388799906 53.864179138094187 26.87453031912446 0.35780963301658886 6.0268133841454974 56.694592908024788 3.6662516556680194 1.2440168932080271 1.500805128365754 2.6001423820853233 0.93497544527053822 0.77314251661300559 2.0845355130732051 1.865543197840452 23.388435233384371 260.65857938304543 147.03179155662656 2.3920082449913025 6.3868929706513873
leaf_count=161 18 103 24 651 315 118 69 96 320 182 581 314 1361 563 9 140 169 97 12 33 67 1 1 35 7 68 6880 236 3 161
internal_value=0.000211426 0.027286 -0.0209384 -0.0417496 0.0392083 -0.013356 0.0160982 -0.0356408 -0.0142368 0.0190792 0.0223618 0.0457568 -0.0400266 -0.0231786 0.0337728 -0.0208572 0.0353154 -0.0517168 -0.0184922 0.0278321 -0.00594556 -0.0355585 -0.0495556 -0.0529211 -0.021445 0.0439717 -0.0535838 0.0498515 0.0413429 -0.0542715
internal_weight=957.682 582.096 115.383 375.587 466.712 97.5875 103.047 57.8448 26.9189 39.7426 88.113 363.665 85.5394 30.9021 29.8438 14.9342 102.443 277.999 9.72418 34.255 6.09757 5.48761 54.6373 268.275 5.53179 23.7462 262.743 261.223 3.63603 30.926
internal_count=12795 4038 2111 8757 1927 1562 893 1228 416 334 650 1034 1943 581 168 243 484 7195 176 215 91 119 1362 7019 104 77 6915 550 15 812
is_linear=0
shrinkage=0.05


Tree=38
num_leaves=25
num_cat=0
split_feature=1 37 1 53 43 13 13 43 43 13 43 53 44 0 53 44 53 13 37 43 13 43 53 53
split_gain=1091.37 0.0872419 0.0348642 0.0102216 0.00597217 0.00790951 0.00484041 0.0047028 0.00349585 0.00322252 0.00156967 0.00156101 0.000890729 0.000847815 0.000835599 0.000767465 0.00073882 0.000712644 0.00068018 0.000562521 0.000542613 0.00124495 0.000425592 9.16963e-05
threshold=63.990901947021491 1.5000000000000002 47.335252761840827 736.66430664062511 42.728391647338874 36.478002548217781 31.666013717651371 42.42747879028321 45.770221710205085 20.606462478637699 40.652021408081062 772.95843505859386 27.617441177368168 18.475664138793949 664.71310424804699 22.584577560424808 533.90667724609386 32.801660537719734 8.5000000000000018 45.520849227905281 36.478002548217781 39.999254226684577 747.94277954101574 935.76602172851574
decision_type=2 2 2 2 2 2 2 2 2 2 2 2 2 2 2 2 2 2 2 2 2 2 2 2
left_child=2 -2 4 8 20 17 12 14 13 -10 18 -9 22 -3 -8 -12 -7 -6 -5 -14 23 -22 -4 -1
right_child=1 3 6 10 5 16 7 11 9 -11 15 -13 19 -15 -16 -17 -18 -19 -20 -21 21 -23 -24 -25
leaf_value=-0.053995947654462945 0.04579158665995442 0.054877421089124329 -0.054286687799097635 0.054360013512081022 -0.054220006874927729 -0.055258589052755686 -0.054600658867319386 -0.055722421760929355 0.055681879536461455 0.054429333455907274 0.054485506041948344 -0.056449307839447828 -0.054589163117855333 0.055377270339567589 -0.055347453859339014 0.054087112088318456 -0.056006147347702498 -0.05475835436600103 0.055058872097718294 -0.055523732962823757 -0.054078972187477231 -0.054784541623881133 -0.05495703477190237 -0.054123174768650695
leaf_weight=235.97939091920853 3.0340739302337161 28.135978758335114 9.6470053046941775 8.8070716261863691 68.241262342780828 13.22708969935775 9.1661477982997877 22.779909033328295 5.3850754499435416 110.61914587020874 12.636988222599028 10.929935481399296 2.6345285810530177 12.145140469074247 6.3341532088816157 278.52463591098785 4.4061116464436045 6.7559362500905982 5.7578900456428519 4.1407615393400192 41.092167109251022 7.3738063387572756 3.1379046514630309 15.066462453454731
leaf_count=6544 5 35 254 12 1820 294 228 474 6 149 17 206 66 14 140 401 88 164 7 90 1122 177 75 407
internal_value=0.000201627 0.0542424 -0.0543238 0.0542979 -0.0541417 -0.0544925 -0.0553622 -0.0556267 0.0546268 0.0544875 0.0541297 -0.0559581 -0.0546968 0.0550281 -0.0549058 0.0541044 -0.0554454 -0.0542685 0.0546363 -0.0551603 -0.0540332 -0.0541863 -0.0544512 -0.0540036
internal_weight=925.959 465.046 460.913 462.012 392.142 92.6304 68.7703 49.2101 156.285 116.004 305.727 33.7098 19.5602 40.2811 15.5003 291.162 17.6332 74.9972 14.565 6.77529 299.512 48.466 12.7849 251.046
internal_count=12795 646 12149 641 10616 2366 1533 1048 204 155 437 680 485 49 368 418 382 1984 19 156 8250 1299 329 6951
is_linear=0
shrinkage=0.05


Tree=39
num_leaves=24
num_cat=0
split_feature=1 37 1 18 5 5 5 48 2 18 4 48 44 48 18 48 18 2 1 48 18 13 18
split_gain=1033.65 0.090236 0.0296118 0.00882498 0.00600015 0.00545377 0.00331768 0.00277128 0.00279001 0.00220673 0.00186032 0.00114001 0.00112405 0.00114162 0.000755878 0.000724484 0.000629943 0.000572673 0.000543464 0.000309956 0.000274135 0.000134648 0.000124335
threshold=63.990901947021491 1.5000000000000002 47.335252761840827 36.809387207031257 36.304346084594734 36.531240463256843 28.639963150024418 29.785231590271 76.195644378662124 32.093809127807624 14.496284961700441 28.250531196594242 22.584577560424808 31.682027816772464 33.050704956054695 7.1003515720367441 51.530487060546882 63.098783493041999 34.764835357666023 37.228971481323249 33.371763229370124 33.545989990234382 44.523130416870124
decision_type=2 2 2 2 2 2 2 2 2 2 2 2 2 2 2 2 2 2 2 2 2 2 2
left_child=2 -2 5 6 14 19 -3 8 -7 11 -8 -6 13 -5 21 -11 -14 -16 -9 22 -21 -4 -1
right_child=1 3 4 12 9 7 10 18 -10 15 -12 -13 16 -15 17 -17 -18 -19 -20 20 -22 -23 -24
leaf_value=-0.053798308564028223 0.045251706544965242 0.055379493321613293 -0.053972153427699301 0.054899545381377715 -0.054856844976988388 -0.054008840058211549 0.054573590516492215 -0.05460376209387699 -0.054927063604509496 -0.054878632146637775 0.054196573356240799 -0.055565935837962689 0.053966103219533948 0.053932907274816748 -0.054387436508864732 -0.055843677374362244 0.053813621653830856 -0.055425038960880794 -0.055206035976520219 -0.05391745125421693 -0.054371418698355226 -0.054553382401542422 -0.053947847967397634
leaf_weight=247.40330104157329 2.9196676388382903 7.7739394903182975 10.07675586640835 5.5998407006263715 19.436405666172508 54.007434904575348 48.626715838909149 7.4844246841967088 9.7691574282944185 2.1681916788220432 100.01869469881058 8.0016835294663888 125.81763017177582 6.7197478413581848 4.1232891269028178 18.875105958431959 146.72164070606232 1.9628231301903722 7.4980379678308964 29.855752289295197 3.7423174045979968 1.1057680621743191 14.727743837982414
leaf_count=7167 5 9 282 7 464 1506 64 187 231 52 141 170 186 10 108 386 224 43 169 844 98 28 414
internal_value=0.000200766 0.0540129 -0.0540953 0.0540708 -0.055074 -0.0539235 0.0543726 -0.0542932 -0.0541495 -0.0553591 0.0543199 -0.0550636 0.0539051 0.0543723 -0.0542737 -0.0557442 0.053884 -0.0547221 -0.0549052 -0.053825 -0.053968 -0.0540296 -0.0538067
internal_weight=884.436 444.198 440.238 441.278 65.75 374.488 156.419 78.7591 63.7766 48.4814 148.645 27.4381 284.859 12.3196 17.2686 21.0433 272.539 6.08611 14.9825 295.729 33.5981 11.1825 262.131
internal_count=12795 646 12149 641 1533 10616 214 2093 1737 1072 205 634 427 17 461 438 410 151 356 8523 942 310 7581
is_linear=0
shrinkage=0.05


Tree=40
num_leaves=24
num_cat=0
split_feature=1 37 1 53 5 43 5 5 43 43 53 43 43 43 53 43 5 43 43 53 22 5 53
split_gain=980.009 0.0546123 0.0243637 0.00733771 0.00613593 0.00459597 0.00379384 0.00376364 0.00678638 0.00259245 0.00140319 0.00114286 0.000949468 0.000811844 0.000882939 0.00079931 0.000547186 0.000484656 0.000472669 0.000407339 0.000314387 0.000114396 6.32348e-05
threshold=63.990901947021491 1.5000000000000002 45.015634536743171 736.66430664062511 36.304346084594734 42.42747879028321 28.639963150024418 36.531240463256843 41.221094131469734 45.770221710205085 706.72872924804699 42.626657485961921 46.016479492187507 49.579776763916023 722.27175903320324 36.671506881713874 32.490194320678718 42.728391647338874 38.409152984619148 762.63146972656261 11.364118576049806 32.600963592529304 935.76602172851574
decision_type=2 2 2 2 2 2 2 2 2 2 2 2 2 2 2 2 2 2 2 2 2 2 2
left_child=2 -2 7 6 13 15 -3 17 18 -8 -7 20 -10 21 -15 -6 -13 22 -9 -19 -5 -4 -1
right_child=1 3 4 11 5 10 9 8 12 -11 -12 16 -14 14 -16 -17 -18 19 -20 -21 -22 -23 -24
leaf_value=-0.053578881596980578 0.048221692732413418 0.05524482217009468 -0.053696797607502594 0.054413017844453751 -0.053677971213582878 -0.055102695284029446 0.05449786014140412 -0.053618092601771507 -0.054478694482765128 0.053971679043441523 -0.055773050368959347 0.053943282524595154 -0.055151625325429846 -0.054014849973810147 -0.055126736458414316 -0.054515737117883684 0.053662713181536384 -0.053710955705137654 -0.054007531596831096 -0.054228594005143682 0.053950704902948246 -0.054057970274950663 -0.053690700063599467
leaf_weight=204.88730779290199 4.339033991098403 7.6265830993652335 11.043230529874565 4.407181084156039 3.5835373215377357 21.874331563711166 30.737235724925995 37.205392882227898 11.859785031527283 98.182888865470886 12.1380253508687 18.740114092826843 9.3935486413538438 5.0738764107227317 2.7548800706863403 13.855217367410658 239.05083364248276 56.146188002079725 9.8553289771079999 4.0764531418681136 22.205550312995911 2.7354691699147216 13.475093450397251
leaf_count=6244 7 9 328 6 107 498 41 1125 301 145 249 28 212 142 63 351 378 1663 274 110 33 76 400
internal_value=0.000302462 0.0538024 -0.0538767 0.05386 -0.0547066 -0.0550035 0.0541612 -0.053702 -0.0540346 0.0540971 -0.0553419 0.0537153 -0.0547761 -0.0539995 -0.0544061 -0.0543436 0.0536831 -0.0536204 -0.0536996 -0.053746 0.0540273 -0.0537685 -0.0535858
internal_weight=845.247 425.289 419.958 420.95 73.0586 51.4511 136.547 346.899 68.3141 128.92 34.0124 284.404 21.2533 21.6075 7.82876 17.4388 257.791 278.585 47.0607 60.2226 26.6127 13.7787 218.362
internal_count=12790 647 12143 640 1814 1205 195 10329 1912 186 747 445 513 609 205 458 406 8417 1399 1773 39 404 6644
is_linear=0
shrinkage=0.05


Tree=41
num_leaves=25
num_cat=0
split_feature=1 37 1 18 5 43 5 43 5 43 18 43 43 43 18 43 3 43 43 18 5 17 5 18
split_gain=928.587 0.0572118 0.0207202 0.00643738 0.00520821 0.00389567 0.00320407 0.00577001 0.00311579 0.00193105 0.00130124 0.000946186 0.000805215 0.000691053 0.000910813 0.000680025 0.00051042 0.000413332 0.000402464 0.000394829 0.000384829 0.000360571 9.76073e-05 5.50761e-05
threshold=63.990901947021491 1.5000000000000002 45.015634536743171 37.174631118774421 36.304346084594734 42.42747879028321 36.531240463256843 41.221094131469734 28.639963150024418 45.381528854370124 36.439983367919929 40.573314666748054 46.016479492187507 49.579776763916023 33.050704956054695 36.671506881713874 79.690479278564467 42.728391647338874 38.409152984619148 33.712663650512702 36.531240463256843 6.0057606697082528 32.600963592529304 45.163438796997077
decision_type=2 2 2 2 2 2 2 2 2 2 2 2 2 2 2 2 2 2 2 2 2 2 2 2
left_child=2 -2 6 8 13 15 17 18 16 -10 -7 21 -9 22 -15 -6 -3 23 -8 -19 -13 -5 -4 -1
right_child=1 3 4 11 5 10 7 12 9 -11 -12 20 -14 14 -16 -17 -18 19 -20 -21 -22 -23 -24 -25
leaf_value=-0.053392289829419105 0.047767694142883912 0.055259569101325567 -0.05350360081625033 0.054358191630752978 -0.05348584976309724 -0.054839795635160594 -0.053429259157984181 -0.054241587632075539 0.054201143020897957 0.053762075216893718 -0.055520323203921751 0.053673127300070081 -0.054875519762416225 -0.05370062458118733 -0.054817463844083585 -0.054276693687323643 0.054458110224606816 -0.053508953171821465 -0.053797025237387511 -0.053967164340228115 0.05346702010974197 0.053762036809078532 -0.053845019764663063 -0.05350191370803456
leaf_weight=196.25412632711232 4.1656592302024356 4.2724613547325125 10.541618201881649 3.6345937848091117 3.4207008797675398 22.253970431163907 35.51278349198401 11.329443268477918 33.245486319065094 101.48759806156158 10.264158591628073 25.2214714884758 8.9792402833700162 4.3127236030995837 3.1654039286077023 13.236066602170466 3.7130335569381714 52.324379971250892 9.4104341138154251 5.1654046121984711 221.92326402664185 8.3942022323608381 2.6120893545448771 12.167961344122885
leaf_count=6266 7 5 328 5 107 529 1125 301 47 157 218 40 212 129 76 351 5 1626 274 147 368 13 76 378
internal_value=0.000301294 0.0535972 -0.0536735 0.0536576 -0.0544563 -0.0547361 -0.0535085 -0.0538225 0.0539273 0.0538704 -0.0550546 0.0535091 -0.0545219 -0.0537896 -0.0541734 -0.0541143 0.0548869 -0.0534314 -0.0535063 -0.0535501 0.0534881 0.0539422 -0.0535714 -0.0533987
internal_weight=807.008 406.058 400.951 401.892 69.8067 49.1749 331.144 65.2319 142.719 134.733 32.5181 259.174 20.3087 20.6318 7.47813 16.6568 7.98549 265.912 44.9232 57.4898 247.145 12.0288 13.1537 208.422
internal_count=12790 647 12143 640 1814 1205 10329 1912 214 204 747 426 513 609 205 458 10 8417 1399 1773 408 18 404 6644
is_linear=0
shrinkage=0.05


Tree=42
num_leaves=25
num_cat=0
split_feature=1 37 1 18 13 43 43 13 13 43 18 44 43 44 43 43 18 18 17 18 13 43 53 53
split_gain=880.041 0.059918 0.0176319 0.00548005 0.00322859 0.00302122 0.00258421 0.00375199 0.00176372 0.00163557 0.00103353 0.000922215 0.000805847 0.000580637 0.000498721 0.000414807 0.000388001 0.000360872 0.000306821 0.000260873 0.000221176 0.000525567 0.000160614 4.84543e-05
threshold=63.990901947021491 1.5000000000000002 45.015634536743171 37.174631118774421 33.338266372680671 42.199106216430671 42.728391647338874 36.478002548217781 24.519685745239261 45.381528854370124 36.439983367919929 24.703725814819339 40.573314666748054 34.122001647949226 36.671506881713874 49.579776763916023 33.371763229370124 31.217630386352543 6.0057606697082528 48.243530273437507 36.979524612426765 39.913791656494148 736.66430664062511 935.76602172851574
decision_type=2 2 2 2 2 2 2 2 2 2 2 2 2 2 2 2 2 2 2 2 2 2 2 2
left_child=2 -2 6 8 13 14 20 16 11 -10 -7 -3 18 15 -6 -4 -8 -9 -5 -14 23 -22 -15 -1
right_child=1 3 4 12 5 10 7 17 9 -11 -12 -13 19 22 -16 -17 -18 -19 -20 -21 21 -23 -24 -25
